solver_type L2R_L2LOSS_SVC_DUAL
nr_class 2
label 1 0
nr_feature 180987
bias -1
w
0 
0 
0.002733187908512437 
0 
0 
0 
0 
0 
0 
0 
0 
0.03632165799986289 
0 
0 
0 
0.0006405769483449327 
0 
0 
0 
-0.004367368229786778 
-0.0123966360449585 
0 
0.1497265647731406 
0 
0 
0 
0 
-0.004208970056204314 
0.002243547713532785 
0 
0 
-0.1211083391723907 
0 
0 
0.003279496041771946 
0 
0 
-0.0004921674303660173 
0 
0 
0 
0 
-2.188902542294563e-17 
-0.002643045472692222 
0 
0 
0.02323401171965738 
0 
0 
0 
0 
4.336808689942018e-19 
0.01140694324046785 
0 
0 
0.03712514771868844 
0 
0.002243547713532785 
0 
0 
0 
0 
0.001434171889793414 
0 
0 
0.1299604407642042 
0 
0 
0 
0 
0 
0 
0 
0 
0 
0 
0.01464611073843109 
0 
0 
0 
0.0008071162689712247 
0 
0.0006405769483449327 
0 
0 
0 
0 
0 
0 
0 
0 
0 
0 
0 
0 
0 
0 
0 
0 
0 
-0.005404046392188649 
0 
0 
-2.168404344971009e-19 
0 
0 
0.00794456024747995 
0 
0 
0 
0 
0 
0 
0 
0 
0.05539313243177296 
0 
0 
0.0008071162689712247 
0 
0 
0 
0 
0 
0 
0 
0 
0 
0 
0 
-0.0123966360449585 
0 
0 
-0.0123966360449585 
0 
0 
0 
0 
0 
0.0006203617616632416 
0 
0 
0 
0 
0 
0 
0.002243547713532785 
0.007353460651188248 
0 
0 
0 
0 
0.0006405769483449327 
0 
0 
0.006119302562113186 
0 
0 
0.07620995968772575 
0 
0 
0 
0.009132016797477703 
0 
0 
0 
0 
0.006461180085066813 
0 
0 
0 
0.009132016797477703 
0 
0 
-0.01474495898344186 
0 
0 
0 
0 
0 
0 
0 
-0.02101476562006175 
0 
6.776263578034403e-21 
0 
-0.005526184899085016 
0 
0 
0 
0 
0.06830088118038992 
-2.032879073410321e-20 
-0.01374234594067821 
0 
0 
0 
0 
0 
0 
0.003628156105064148 
0 
-0.005046832547075406 
0 
0 
0 
0 
0 
0 
0 
0 
-0.1322964232818388 
0 
0 
0 
0 
0 
-0.001968669721464069 
0.01416253726386357 
0.002733187908512437 
0.0006203617616632416 
0.01567745688937219 
0 
0 
0 
0 
0 
0 
0 
0 
0 
0 
3.469446951953614e-18 
0 
0 
0 
0 
0 
0 
0 
0.03897601263785692 
0 
0 
0 
0 
0 
0 
0 
-0.0123966360449585 
0 
0.002243547713532785 
0 
-2.032879073410321e-20 
0 
0 
0 
0 
-0.0005421811051400689 
0 
0 
0 
0 
0 
0 
0 
0 
0.01047437684004117 
0 
0.01284071489303014 
0 
0 
0 
0 
0.01675509195692193 
-0.2497157697660036 
0 
0 
-0.009044403995229409 
0 
0 
0 
0 
0.009093268105662142 
0 
0 
0 
0 
0 
0 
0 
0.0006405769483449327 
0 
0.01960023737512272 
0 
0 
-0.002761271441832181 
3.388131789017201e-21 
0 
0 
0 
0 
0.004941709794824215 
0 
0 
0 
0 
-0.05969990258251867 
0 
0 
0 
-0.01696222702866989 
0 
0 
0 
0 
0 
0 
0 
0 
0 
0 
0 
0.03423528973304046 
0 
0 
0 
0 
0 
0 
0 
0 
-0.003250183125219732 
0 
0 
0 
0 
0 
0 
0 
0 
0.006145471946397435 
0 
0 
0.02969138660529777 
0 
0 
0.003332410817357095 
0.02089408546588875 
0 
0 
0 
0 
-0.01736757342034917 
0 
0 
0 
0 
0 
0 
0 
0.06105896677642932 
0 
0 
0.0006203617616632416 
0 
0 
-0.1645310014153858 
0.1263336996760869 
0 
0 
0 
-2.236166980751353e-19 
0 
0.02711645876761046 
-0.005516332899008805 
0 
0 
0 
0 
0 
0 
0.007789752142817677 
0 
0 
0 
0 
0 
0 
0 
0 
0 
0 
0 
0 
-0.01520269535828053 
0 
0 
0 
0 
0 
0.02852241528795754 
0.0006405769483449327 
-1.114297312667144 
0 
0 
-0.0005421811051400689 
0 
0 
0 
0 
-0.0067463113535614 
0 
0 
0 
0 
0 
0.0008071162689712247 
0 
0 
0 
0.03262441176443586 
0 
0 
0 
0 
0 
0.0679972851617624 
0 
0 
0 
0.03497495933065246 
0 
0 
0 
0 
0 
0 
0 
0 
0 
0 
0 
0 
0 
0.0006203617616632416 
-0.00441235549877847 
-0.2517899239042529 
0 
4.336808689942018e-19 
0 
0 
0 
0 
0 
0 
-0.01374234594067821 
0 
0.00296494160376472 
0 
0 
0 
0 
0.002243547713532785 
0.06247506776611642 
0 
0 
0 
0 
0 
0.0505106864485116 
0 
0 
0.2547510213996534 
0 
0 
-2.032879073410321e-20 
0 
0 
0 
0 
0 
0 
0.03759397759212858 
0 
0 
0 
0 
0 
0 
0 
0 
0.003072735973198717 
0 
-0.01966430895172565 
0 
0 
0 
0 
-0.0004921674303660173 
0 
0.003055807999847766 
0.001810489837116206 
0.007399746778635315 
0.002572206634950129 
0 
0 
0 
0 
0 
0.0288789981309438 
0 
0 
0 
0 
0 
0 
0 
-2.032879073410321e-20 
0 
0 
0 
0 
-0.0001434850458612467 
0.01794556983953084 
0.02394083406187821 
0.0006203617616632416 
0 
0 
0 
0.3237759330192483 
0 
0 
0 
0 
0 
0 
0 
0 
0 
0.06959011450509035 
0 
-0.02255638497343719 
0 
0 
0 
0 
0 
0 
0 
0 
0 
0 
0 
0 
0 
0 
0 
-0.003066749963439598 
0 
-0.1543165764676484 
0 
0 
0 
0 
0 
0 
0 
-0.08418816320886027 
0 
0 
0 
0 
0 
0 
0 
0 
0 
0 
1.694065894508601e-20 
0 
0 
0 
0 
0 
0.03290689120033605 
0 
0.003072735973198717 
0 
0 
0 
0 
0 
0 
0.01101729915384446 
0.0006405769483449327 
-0.0124079465886932 
0 
0 
0 
0 
0.001125051972996111 
0.002248735271852699 
6.776263578034403e-21 
0 
0 
0.0007022857283983823 
0 
0 
0 
0 
0 
-2.303929616531697e-19 
0.0255300765001944 
0 
0 
0 
0 
0 
0 
0 
0 
0 
0 
0 
0 
0 
0 
0 
0 
0 
0 
-0.4124613754344587 
0.03347343592999485 
-2.032879073410321e-20 
0 
-0.05536899682059825 
0 
0 
0 
0 
0 
0 
0 
0 
0 
0 
0 
0 
0 
0 
0 
-0.004325303698997657 
0.0002820848922113885 
0 
0.02394083406187821 
0 
0 
0 
0.2433035166852086 
0 
0 
-0.0923318607120341 
0.0002911584799535388 
0 
0 
-0.001174568525000993 
0 
0.01170913563900091 
0 
0 
-0.0261248231737702 
0 
0 
0 
0 
0 
0.0136659395425622 
0 
0 
0.003412219995257185 
0 
0 
0 
0 
0 
0 
0.1152586372190468 
0.0172385250105314 
0 
0 
0 
0 
0 
0 
-0.001968669721464069 
0 
0 
0 
0 
0 
0 
0 
0 
0 
0 
0 
-0.0123966360449585 
0 
0.002044006146149611 
0 
-0.003416900288754176 
0 
0.03148924729907324 
0 
0.0005879990806778168 
0.001889035686991799 
0 
0 
0 
0 
0 
0 
-0.008339653968783877 
0 
-2.602085213965211e-18 
0 
0 
0 
0 
0 
0 
0 
0 
0 
0 
0 
0.05114269628145925 
0 
0.0008071162689712247 
0 
0 
0 
0.001614232537942449 
0 
0 
0 
0 
-0.0123966360449585 
0 
0 
0 
0.003263267288828811 
0 
0 
0.06689630069017594 
0.001434171889793414 
0 
0 
0 
-0.001731194474750612 
0 
0 
0 
-0.107993166607514 
0 
0 
0.01364364201483519 
0 
0 
0 
-0.000403019882814177 
0 
0 
0 
0 
0 
0 
0 
0 
0 
0 
0 
0 
0 
0 
0 
0 
0 
0 
0.0222141053885886 
0 
0 
0 
0 
0 
0 
0 
0 
0 
0 
0 
0 
0 
0 
-0.0124079465886932 
0 
0 
0 
0 
0.0006405769483449327 
0 
0 
0 
0 
0 
0 
0.179192675916217 
0 
0 
0 
0 
-0.01043433355425985 
0 
0 
0 
0 
0 
0 
0 
0 
0 
0 
0 
0 
0 
0 
0 
0 
0 
0.0006203617616632416 
0 
0 
0 
0 
0.02207590817908265 
0 
-0.01007727862645516 
0 
0 
0 
0 
0 
0 
-0.06481102478090353 
0 
0 
-0.0123966360449585 
-0.03574859209804817 
0 
0 
0 
0 
0 
0 
0 
0 
-0.1438889386471406 
0.0154083542878439 
0 
-0.1266745685124233 
0 
0 
0 
0 
0 
0 
0 
0 
0 
0 
0 
0 
1.797289626133839e-05 
0 
0 
0 
0 
0 
0 
0 
0 
0 
0 
0 
0 
0 
0 
0 
0 
0 
0 
0 
-0.1541161932994315 
0 
0.03325987401012002 
0 
0 
0 
0 
0 
0 
-2.032879073410321e-20 
0 
0 
0 
0 
0 
0 
0 
0.05929128501862108 
0 
-0.03868207054165541 
0 
0 
0 
0 
0 
0 
0 
0 
0 
-0.01334171819986268 
0.1050523951387481 
0.003055807999847766 
0 
0 
0 
0 
0 
0 
0 
0 
0 
0 
-0.0123966360449585 
0 
0 
0 
0.01611397570280809 
0 
0 
0 
0.003912226864998499 
-0.02037300741924926 
0 
0 
0 
0.0895560284603739 
0 
0 
0 
-0.003523831178783778 
0 
0 
0 
0 
0 
-0.02129057546411164 
0 
0 
0 
0 
0.3842787060722188 
0 
0.005802632079499962 
0 
-0.03711022573088051 
0 
0 
0 
-0.0123966360449585 
0 
0.0006203617616632416 
0 
0 
0 
0 
0.3386134009591595 
0 
0 
0 
0 
0.03377042466790306 
0 
0 
0 
0 
0 
0 
-0.01997765934677687 
0 
0 
-0.2106961013882372 
0.0005823169599070777 
0 
0 
0 
0 
0 
0 
0.0002911584799535388 
0 
0 
0 
0 
-0.03296936697378573 
0.0006405769483449327 
0 
-0.001343749033266961 
0 
0 
0 
0 
0 
-6.152783344001422e-06 
0 
0 
0 
0 
-0.007106553826056211 
0 
0 
0 
0 
0 
0.0002911584799535388 
0 
0 
0 
-0.0065975591242485 
0 
0 
-6.505213034913027e-19 
0 
-0.0205337225113049 
0 
-0.04671209425042647 
0 
0 
-0.1236389662559967 
-0.01185229831577465 
0 
0 
0 
0 
0 
-0.06845713015688082 
0 
0 
0 
0 
0 
0 
0 
0 
0 
0 
-0.02242024512772192 
0 
0 
0 
0 
0 
0 
0 
0 
0.0006203617616632416 
0 
0 
0 
-1.734723475976807e-18 
-4.336808689942018e-19 
0 
0 
0 
0 
0 
0 
0 
0 
0 
-7.589415207398531e-18 
0 
0 
0 
0 
0 
0 
0 
0 
0 
0 
0.03380187274255742 
0 
0.07842457638189482 
0 
0 
0 
0 
0 
0 
0 
0 
0 
0.00279630763433352 
0 
0 
0 
0 
0 
0 
0 
0 
0 
0 
0 
0 
0 
0 
0 
0 
0 
-0.02259404681691033 
0 
0 
0 
0 
0 
0 
0 
0 
0.0002911584799535388 
0 
0 
0 
0.002248735271852699 
0 
0 
0 
0 
0.003137710739851692 
0.02089408546588875 
0 
0 
0 
0.0564756793221341 
0 
0 
0 
0.006652587212636771 
0 
0 
0.004040692070164664 
0 
0 
0 
0 
0 
0 
0 
0 
0 
0 
0 
0 
-0.004518858498302358 
0 
0 
0 
0 
0 
0.003055807999847766 
0 
0 
0 
0 
0.05312292497673657 
0.01698167766691026 
0.01247408810726962 
0 
0 
-0.03124457763095684 
-0.3933048206600183 
0.02773638309263487 
0 
0 
0 
0 
0 
0 
-0.0204174271047079 
0 
0.01496194202484849 
0 
0 
0 
0 
0 
0 
0 
0 
0 
0 
0 
0 
0 
0 
0 
0.05147033865460737 
0 
0 
0.220562718810882 
0 
0 
0 
0 
-0.01731826345357192 
0.05897650688376267 
0 
0 
0 
0 
0 
-0.001029609707023292 
0.004322034690236327 
0 
0 
0.0002911584799535388 
0.0006203617616632416 
-0.003551274245355957 
0 
0 
0.0154083542878439 
-0.007703383474125832 
0 
0 
0 
0 
0 
0 
0 
0 
0 
0 
0 
0 
0 
0 
-3.794707603699266e-19 
0 
0 
0 
0 
0 
0 
0 
0 
0 
0 
-0.07052539438469958 
0 
0 
0 
0 
0 
0 
0 
0 
-0.005046832547075406 
0.02234533523398913 
0 
0 
0 
0 
-0.0004921674303660173 
0 
0 
0 
0 
-0.002229756303287521 
0 
0 
0 
0 
0 
-2.168404344971009e-19 
0 
0 
0 
0 
0 
0 
0 
0 
0 
0 
0 
0 
0 
0 
0 
0 
0.06156150620366577 
0 
0 
0 
0 
0 
0 
0 
0 
0 
0 
0 
0 
0 
0 
0 
0 
0 
0 
0 
0 
0 
0 
0 
0 
0 
0.0002911584799535388 
0 
0 
0 
0 
0 
8.673617379884035e-19 
0 
0 
0 
0 
0 
0 
0.0008071162689712247 
0.01502288191809602 
0 
0 
0.2144323510431329 
0 
0 
0 
0 
0 
0 
0.0008071162689712247 
0 
0 
0 
0 
-0.000403019882814177 
0 
-0.01673121590366227 
0 
0 
0.01542569214471017 
0 
0 
0 
0 
0.03333898380901048 
0 
0 
-0.1436058568599732 
0.02578683364244119 
0 
0.006652587212636771 
0 
0 
0 
0 
0 
0 
0 
0 
-0.02727673032921656 
-0.0123966360449585 
0 
0 
0 
0 
0 
-0.09456147862180964 
0 
0 
-0.184006049343524 
-0.02380517638117833 
0 
0 
0 
0 
0 
0 
0 
0 
0 
0 
0 
0 
0 
0 
0 
0 
0 
0 
0 
0 
0 
0 
0 
0 
0 
0 
0 
0 
0 
0 
0 
0 
-0.02269644284186282 
0 
0 
0.163252993444216 
0 
0.0006203617616632416 
0 
0 
0 
0 
0 
0 
0 
0 
0 
0 
0 
0 
0 
0 
0.02357449692643751 
0.008653183496976302 
0 
0 
0 
0 
0.00212932399569565 
0 
0 
0 
0 
0 
0.0295320932542039 
0 
0 
0.07167330411058545 
0.004530979064805896 
0 
0 
0.0510931214449766 
0 
0 
0 
0 
0 
0 
0 
0 
0 
0 
-0.01922253433044958 
0 
0 
0.03479505725254518 
0 
0 
0 
0 
0 
0.02357449692643751 
0 
0 
0 
-0.002702023196094324 
0.002044006146149611 
0 
0.003477445109521452 
0 
0.002221904660390757 
0 
0.003055807999847766 
0 
0 
0 
0 
0 
0 
0 
0 
0 
0 
0 
0 
0 
0 
0.02882166704018189 
0.03560659758116224 
0 
0.003055807999847766 
0 
0 
0 
0 
0 
0 
0 
0 
0 
0 
0.005884248560746422 
0 
0 
0 
0 
0 
0 
0 
0 
0 
0 
0 
0 
0 
0 
-0.4496422777747853 
0 
0 
0.06025468553804147 
0 
0 
0 
0 
0 
0 
0.001082741425002127 
0 
0.003564386794136171 
0 
0.02356938283808892 
0 
0.02147855660203647 
0 
0 
-2.951909821181237e-19 
0.0002911584799535388 
0 
0 
0 
0 
0 
0 
0 
0 
0 
0 
0.008118173040011618 
0 
0 
0.02249328749150772 
0 
0 
0 
0 
0 
0 
0.0002911584799535388 
0 
0 
0 
0 
0 
0 
0 
0 
0 
0 
0 
0 
0 
0 
0.01794556983953084 
0 
0 
1.084202172485504e-19 
0 
0 
0 
0 
0 
0 
0 
0 
0 
0 
0 
0 
0 
0 
0 
0 
0 
0 
0 
0 
0 
0 
0 
0 
0 
0 
0 
0.04518678146813482 
0 
0 
0 
-1.355252715606881e-20 
0 
0 
0.001434171889793414 
0 
0 
0 
0 
0 
0 
0 
0 
0 
0 
0 
0 
0 
0 
-8.673617379884035e-19 
0 
0 
0 
0 
0 
0 
-0.03202632769424214 
0 
0 
0 
0 
0 
0 
0 
0 
0 
0 
0 
0.003332410817357095 
0.04137498066031496 
-8.673617379884035e-19 
-0.004447239399954216 
0 
0 
0 
0 
0 
0 
-0.0804792784144739 
0 
0.001727657400588733 
0 
0.1237461239446886 
0 
0 
0 
0 
0 
0 
0.03344394522884758 
0 
0 
0 
0 
0 
0 
0 
0 
0 
0 
0 
0 
-0.0006582104863723227 
0 
0 
0 
0 
0 
0 
0 
0 
0 
0 
0 
-0.02397804586840959 
0 
0 
0 
0 
0 
-0.003986275900953865 
0 
0 
0 
-0.003551413378312166 
0 
0 
0.02053911641304175 
0 
0 
0 
0 
0 
0.006786386818840561 
0 
0 
0 
0 
0 
0 
0 
0 
0 
0 
0 
0.04606844806654922 
-0.02380517638117833 
0 
0 
0 
0 
0 
0.06959011450509035 
0 
0 
0.5416195709795545 
0 
0 
0 
0 
0 
0 
0 
-0.0123966360449585 
0 
0 
0 
0 
0 
0 
0 
0 
-0.01647849932061519 
-0.0325543990299157 
0 
0 
0 
0 
0 
0 
0.01695584196317416 
0 
0 
-8.673617379884035e-19 
0 
0 
0.008627096968818923 
0 
0.03377042466790306 
0 
0 
0 
0.00212932399569565 
0 
0.06666938328178344 
0 
0 
0 
0 
0 
0 
0 
0 
0 
0 
0 
0.003412219995257185 
0 
0 
0 
0 
0.03423528973304046 
0 
0 
0 
0 
0 
0 
0 
0 
0 
0 
0 
0 
0 
0 
0 
0 
0 
0 
0 
0.007782820164817461 
0 
-0.1317358135420277 
0.0288789981309438 
0 
0 
0.07133737291945899 
0 
0 
0 
0 
0 
0 
0 
0 
0 
0 
0.04781753938231837 
0 
0 
0 
0.004322034690236327 
0 
0 
0 
0 
-8.673617379884035e-19 
0 
0 
0 
0 
0 
0 
0 
0 
0 
0 
0 
-0.01520269535828053 
0 
0 
0 
0.008030099520851468 
0 
0 
0 
0.03312572902307539 
-0.0004921674303660173 
0 
0 
0 
0.03132497120296585 
0 
0 
0 
0 
0 
0 
0 
0 
0.0006405769483449327 
-0.0419577532682636 
0.002248735271852699 
0 
0.0008071162689712247 
0 
0 
-0.03573658091309335 
0 
0 
0 
0 
0 
0.004009503390308674 
0 
0 
0 
0 
0 
0 
0 
0.0006405769483449327 
0 
0 
0 
0 
0 
0 
-0.004792431907551112 
0.0006203617616632416 
0.05699735773384885 
0 
0 
0 
0 
0.0154083542878439 
0 
0 
0 
0 
0 
0 
0 
0 
0 
0 
0 
-0.1222468595828567 
0.002243547713532785 
0 
0 
0 
0 
0 
0 
0 
0 
0 
0 
0 
0 
0 
0 
-0.08759706718245547 
-0.0007432521010958419 
0 
0 
0 
0 
0 
0 
0 
0 
0 
-8.131516293641283e-20 
0 
0 
0 
0 
0 
-2.14055784306171e-05 
0 
0 
0 
0 
0 
0 
0 
0 
0 
0 
0 
0.02777750055319026 
0 
0 
-0.0123966360449585 
0 
0 
0.003044377512556614 
0 
0.02949461049381896 
0 
0 
-0.00239495111037373 
0 
-0.3068525158958108 
0 
0 
0 
0 
0 
0 
0 
0 
0 
0 
0 
0 
0 
0 
0 
0 
0.2627501158235183 
0.003072735973198717 
0 
0 
0.01839966039219778 
-0.008135621953684686 
0 
-1.694065894508601e-20 
0 
0 
0 
0.003055807999847766 
0 
0 
0 
-0.0004921674303660173 
0 
0 
0 
0 
0 
0 
0 
0 
0 
0 
0 
0 
0 
0 
0 
0 
0.002243547713532785 
0 
8.063753657860939e-18 
0 
0 
0.002733187908512437 
0 
0 
0 
0 
0 
0 
0 
0 
0 
0 
0 
0 
-0.0769636776427408 
0.006097978614931289 
0 
0 
0 
0 
0 
0.007271831395477684 
0 
0 
0 
0 
0 
0 
0 
0 
0 
0 
-0.07696367764274081 
0 
0.05285197620407749 
0 
0 
0 
0 
0 
0 
0 
0 
0 
0 
-0.02595952339979614 
0 
0 
0.00212932399569565 
-0.02962073242123864 
-0.0124687779537352 
0 
0 
0.4706448805508905 
0 
0 
0 
0 
-0.03175140393554166 
0 
0 
0 
0 
0 
0 
0 
0 
0 
0 
0 
0.0002911584799535388 
0 
0 
0 
0 
0.0005823169599070777 
0 
0 
0 
0 
0 
0 
-0.1001226006862324 
0 
0 
0 
0 
0 
0 
0 
0 
0 
0 
0 
0 
1.084202172485504e-19 
0 
0.0006405769483449327 
0 
0 
0 
0 
0 
0 
0 
0 
0 
0 
0 
0 
0 
0 
0 
0 
0.02001504780622124 
0 
0 
0 
0 
0.009132016797477703 
0 
0 
0 
0 
0 
0 
0 
0 
0 
0 
0.02623173990170011 
0 
0.3310174229301195 
0 
0.02280033540447541 
0 
0 
0.00212932399569565 
0 
0 
0.001434171889793414 
-0.0123966360449585 
0.1360508939012583 
0 
0 
0 
0 
0 
0 
0 
0 
0 
6.776263578034403e-21 
0 
-0.003551274245355957 
0 
0 
0 
0 
0 
0 
0 
0 
-0.0147151530353802 
0 
-2.032879073410321e-20 
0 
0 
0.003628156105064148 
0 
0 
0 
0 
0 
0 
0.007389926084221068 
0 
0 
0 
0 
0 
0.04752113700584853 
0 
0 
0 
0 
0 
0 
0 
0 
0 
0.0005823169599070777 
0 
0 
0.01399337780770336 
0.002780206064995777 
0 
0 
0 
-0.01673121590366227 
0 
0 
0 
0 
0 
0 
0 
6.776263578034403e-21 
0 
0 
0.002243547713532785 
0 
0 
0 
0 
-0.0004053167418085574 
-2.032879073410321e-20 
0 
0 
0 
0.003628156105064148 
0 
0 
0 
0 
0 
0 
0 
-0.04853358638831816 
0 
0 
0 
0.004530979064805893 
0 
0.02172330589690974 
0 
0 
0 
0 
0 
0 
0 
0 
0 
0 
0 
0 
0 
0.01745843804335949 
-0.05969990258251867 
0 
0 
0 
-0.03378739602878666 
0 
0.0006203617616632416 
0 
0 
0 
0 
0 
0 
0 
0 
0 
0 
0 
0 
0 
0.0006203617616632416 
0 
0 
0 
0 
0 
0 
0 
0 
0 
0 
0.01745843804335949 
0 
0 
0 
-0.1948492726570304 
0 
0 
0 
0 
0.03191745303326484 
0 
0.07440990013812585 
0 
0 
0 
0 
0 
0 
0 
0 
0 
0 
0 
0 
-2.710505431213761e-20 
0 
0 
0.05187864297097279 
0 
0 
0 
0 
0 
0 
0 
0 
0 
0 
0 
0 
-0.0003912988154712044 
0.007559901690763569 
0 
0 
0 
0 
0 
0.004623838569935959 
0 
0 
0 
-0.05097412868091586 
0 
0 
0 
0 
0 
0 
0 
0 
0 
0 
0 
0 
-0.09302800915931686 
0.009366398236935398 
0 
0 
0 
0.003055807999847766 
0 
0 
0 
0 
0 
0 
0 
0 
0 
0 
0 
0 
0 
-0.02720113573141332 
0 
0 
0 
0 
0 
0.006310155392025318 
0 
0 
0 
0 
-3.979358850448201e-05 
0 
0 
0 
0 
0 
0 
0 
0 
0 
-0.00478065978974979 
0 
0 
0 
0 
0 
0 
0 
0 
0 
0.006641463992418203 
0 
0 
0 
-0.02170110670154792 
0 
0 
0 
0 
0 
0 
0 
0 
0 
0 
-0.06063848591894882 
0.02350864500558153 
0 
0 
0 
0 
0 
0 
0 
0 
0 
0 
0 
0 
0 
0 
0 
0 
-0.0004921674303660173 
0 
0 
-0.05969990258251867 
0 
0 
0 
0 
0 
0 
-0.11172169536621 
0 
0 
0 
0 
0 
0 
-0.001952960671056947 
0 
0 
0 
0 
0 
0 
0 
0 
0 
0 
0 
0 
0 
0 
0 
0 
0 
0 
0 
0 
0 
0 
0.01793889860760644 
-0.003508416721196833 
4.87890977618477e-19 
0 
0 
0.01502288191809602 
0 
0.1152586372190468 
0 
0 
0 
0 
0 
0 
0 
0 
0 
0 
0 
0 
0 
0 
0 
0 
0 
0 
0.01496194202484849 
0 
-0.006500366250439465 
0 
0 
0 
0 
0 
0 
0 
0 
0 
0 
0 
0 
0 
0 
0 
0 
0 
0 
0 
0 
0 
0.5807902382999217 
0 
0 
0.001049864820321811 
0.1295892209584805 
0 
0 
0 
0.004570261525852388 
0.002733187908512437 
0 
0 
0 
0 
0 
0 
0.01893046617607596 
0.002085284784866833 
0 
0 
0 
0 
0 
0 
0 
0 
0 
0 
0 
0 
0 
0 
0.004902483740653047 
0 
0 
0 
0 
0.2979148919350404 
0.04027692432062502 
0 
0 
0 
-0.08106566352255948 
0 
0 
0 
0 
0 
0 
0 
0 
0 
0 
0.01404744918627616 
0 
0 
-0.0123966360449585 
0 
0 
0 
0 
0.04028489689550753 
0.00968818853337727 
0 
0 
0 
0.06074448164047344 
-0.0123966360449585 
0 
0 
0.0006203617616632416 
0 
0 
0 
0 
0 
0 
0.04101940891618146 
0 
0 
0 
0 
0 
0 
0 
0 
0 
0 
0 
0 
0 
0 
0 
0.02402700923124366 
0 
-2.127746763502802e-18 
0 
0 
0 
-0.1978676123701348 
0.0009971092570103773 
0 
0 
0 
0 
0 
0 
0.01502288191809602 
0 
0 
0 
0 
0 
0 
0 
0.001240723523326483 
0 
0 
0 
0 
0.03837105967669455 
0 
0 
0 
0.1786530027193007 
0 
0 
0 
0 
0 
0 
0 
-0.02468531037364423 
0 
0 
0 
0.001434171889793414 
0 
0 
0.4629914371390175 
0 
0 
0 
0.02249328749150772 
0 
0 
0 
0 
0 
0.0537878780184833 
0 
0 
0 
0 
0 
0 
-0.08634894765351515 
0.01056188379280011 
0.02161645147212339 
0 
0 
0 
-0.003686158414437757 
0 
0 
0 
0 
0 
0.0006203617616632416 
0 
0 
0 
0 
0 
0 
0 
0 
0 
-0.05969990258251867 
0 
-0.3407244601064083 
0 
0 
0 
-0.0004921674303660173 
0 
0 
0 
-0.0123966360449585 
0 
0 
0 
0.2589774581138939 
0 
0.02046127673403986 
0 
0 
0 
0 
0 
0 
0 
0 
0 
0.008118173040011618 
0 
0 
0 
0 
0 
0 
0 
-0.0123966360449585 
0 
-0.007621960904475224 
0 
0 
0 
0.04566131270473697 
0 
0 
0 
0 
0 
0 
0 
0 
0 
0 
0 
-0.00249977169876218 
0 
0 
0 
-0.02270916357462209 
0 
0 
0 
0 
0 
0 
0 
0 
0.02244700195534384 
0 
0.002700751224256296 
0 
0 
0 
0 
0 
0 
-0.0123966360449585 
0 
0 
0 
0 
0.0006405769483449327 
-0.009072190350846583 
0 
0 
0 
0.00212932399569565 
-4.336808689942018e-18 
0 
0 
0 
0 
0 
0 
-0.02483523654374566 
0 
0 
0 
0 
0 
0 
0 
0 
0 
0 
0 
0 
0 
0.2020052483521012 
0 
0 
0 
0 
0 
0 
0 
0.002868343779586828 
0 
0 
0 
0 
0.02357449692643751 
0 
0 
0 
0 
0 
0 
0 
0.003694304887468577 
0 
0 
0 
0 
0 
0 
0 
0 
0 
0.004283240080599235 
0 
0 
0 
0 
0 
-0.01231484997903805 
0 
0 
0 
0 
0 
0 
0 
0 
0 
0 
0.00727571858067359 
0 
0 
0.001727657400588733 
0 
0 
0 
0 
0 
0 
0.05704808088162157 
0.344434468833641 
0 
0 
0 
0.02777750055319026 
0 
0 
0 
0 
0 
0.06156150620366577 
0 
0 
2.168404344971009e-19 
0 
0 
-0.06037562343733678 
0 
0 
0 
0.0104195876821065 
0 
0 
0.02358286410097067 
0 
0 
0 
-0.01007727862645516 
0 
0 
0.001116750626530346 
0 
0 
0 
0 
0 
0.0073853660126811 
0 
0 
0 
0.01178084836993446 
0 
0 
0 
0 
0 
-0.01520269535828054 
0 
0.008653183496976302 
0.0002820848922113885 
0 
0 
0 
0 
-8.673617379884035e-19 
0 
-0.0123966360449585 
0 
0.07544724877185865 
0 
0 
0 
0 
0 
0 
0 
0 
-0.0067463113535614 
0 
0 
0 
0.2323809205258514 
0 
0 
-0.1641176654669875 
0 
0 
0 
0 
-0.01494642151900347 
0 
0.001889035686991799 
0.007389926084221068 
0 
0 
0 
0 
0 
0 
0 
0 
0 
-0.02608444192873847 
0 
0 
0 
0 
0 
0 
-0.1865658324989587 
-0.004123388731732701 
0.2019900667708169 
0 
0 
0.0008071162689712247 
0 
0 
0 
0 
0 
0 
0 
0 
0.1907691173334243 
0 
2.371692252312041e-18 
-4.336808689942018e-19 
0 
0 
0 
0 
0.02512350421069834 
0 
0 
0 
0 
-0.0004147638695339196 
0 
0 
0.0002820848922113885 
0 
0 
0 
0 
0 
0 
0 
0 
0 
0 
0 
0 
0 
0.02933191358489194 
-1.409462824231156e-18 
0 
0 
0 
0 
0 
0 
0 
0 
0 
0 
-0.007551414594823043 
0 
0 
0 
0 
0 
0 
0 
0 
0 
0.003279496041771946 
0.0006405769483449327 
0 
0 
0 
0 
0 
-0.0003631837034374908 
0 
0 
0 
0 
0 
-0.06683556336790561 
0 
0 
0 
0 
0.007559901690763569 
0 
0 
0 
0.001434171889793414 
0.07009043205319507 
0.0006203617616632416 
0 
0 
0 
0 
0 
0 
0 
0 
0 
0 
0 
0 
0 
-0.156610208372073 
0 
0 
0 
0 
0 
0 
-0.0007432521010958419 
0.04215115276089158 
-0.04767716213453659 
0 
0 
0 
0 
0 
0 
0.002421348806913674 
0 
0 
0 
-2.032879073410321e-20 
0 
0 
0 
0 
0 
0 
0 
0 
0 
0 
0.002733187908512437 
0.0006405769483449327 
0 
0 
0 
0 
0 
0 
0 
0 
0 
0 
0 
0 
0 
0 
0.0002911584799535388 
0 
0 
0 
0 
0 
0 
0 
0 
0 
0 
0.009728189382432263 
0 
0 
0 
0 
0 
0 
0 
0 
-0.002433904524062171 
0 
0 
0 
0 
0 
0 
0 
0 
0 
0 
0 
0 
0 
0 
0 
0 
0 
0 
0.03290689120033605 
0 
0.002572206634950132 
0 
0 
0 
0.02477282894775815 
0.0006203617616632416 
0 
0 
0 
0 
0 
0 
0 
0 
0 
0 
0 
0 
0 
0.002044006146149611 
0 
0 
0 
0 
0 
0 
0 
0 
0 
0 
0 
0 
0 
0 
0 
0 
0 
-0.02720113573141332 
0 
-0.01435037662414297 
0 
0 
0 
0 
0 
0 
0 
0 
0 
0 
0 
0 
0 
0 
0 
0 
0 
0 
0 
0 
0 
0.0008071162689712247 
-0.007149401506526226 
0 
0 
0 
0 
0 
0 
0 
0 
0 
0 
0 
-0.03134687545918976 
-0.2836469270931095 
0 
0 
0 
1.363723045079424e-19 
0 
0 
0 
0 
0 
0 
0.03183451886999413 
0 
0 
0 
-0.0123966360449585 
0 
0.04184178469160333 
0 
0 
0 
0 
0.03189304084190852 
0 
0 
0 
0 
0 
2.168404344971009e-19 
0 
0 
0.7500673920873366 
-0.003606843330299659 
0 
0 
-0.004848447210720313 
0 
-0.0067463113535614 
0.07761594941232469 
0 
0 
0 
-0.0002514443226048257 
0 
0 
0 
0 
0.01793889860760644 
0 
0 
0 
0 
0 
0 
0 
0 
0 
0.002920736849011501 
0 
0.001761828757511122 
0 
0 
0 
0 
0.0006203617616632416 
0 
0 
-2.032879073410321e-20 
0 
5.421010862427522e-20 
0 
0 
0.009132016797477703 
0.0171841429508364 
0 
0 
-0.01157275139205601 
0 
0 
0 
0 
0 
0.01354711262880956 
0.04319155332940222 
0 
0 
0.008653183496976302 
0 
0 
0 
0 
0 
0 
0 
0.06416606371042802 
0 
0 
0 
0 
0 
0 
0 
0 
0 
0 
0 
0 
0 
4.336808689942018e-19 
0 
0 
0 
0 
0 
0 
0 
0 
0 
0 
0 
0 
0 
0 
-0.01971962790006524 
0 
0.0002911584799535388 
0 
0 
0 
0 
0 
0 
-0.07255591833851546 
0 
0 
0 
-0.002818189307295398 
-0.0004147638695339196 
0 
0 
0 
0.003100548793633876 
0 
-0.06029060674843339 
6.776263578034403e-21 
0 
0 
0 
0 
0.3492070261586098 
0 
0 
0 
0 
-0.053117293653511 
-0.005046832547075406 
0 
-0.006859428281381509 
0 
-0.01123488393845289 
0 
0 
0 
0.003485237608007228 
0 
0 
-0.01696222702866989 
0 
0 
0 
0 
0 
0.001267182256316474 
0 
0 
0 
0 
0 
0 
0 
0 
0 
0 
0 
0 
0 
0 
0 
0 
0 
0 
0 
0 
0 
0 
0 
0 
0 
0 
0 
0 
0 
0 
0 
0 
0 
0 
0.02796477181903098 
0 
0 
0 
0 
-0.009079539191593147 
0.0002820848922113885 
0 
0 
0 
0 
0 
0.0006203617616632416 
0 
0 
0 
0 
-0.1229043300105421 
0 
-2.032879073410321e-20 
0.03065153845212768 
0 
0 
0 
0 
0.01688521233395153 
0 
0 
-0.1790343551090276 
0 
0.03189304084190852 
0 
0 
0 
0 
0 
0 
0 
0.02845690868843558 
0 
0 
0 
0 
0 
0 
0 
0 
0 
0 
0 
0 
0 
0 
0 
0 
0 
0 
0 
0 
0 
-0.001061899150961506 
0 
0 
0.006412819839471747 
0 
0.0002911584799535388 
0 
0 
0.002243547713532785 
0 
-2.032879073410321e-20 
0.0008071162689712247 
0 
0 
0 
8.673617379884035e-19 
0.05825887802656304 
0.137391422434764 
0 
0 
-0.005702391266781811 
0 
0 
0 
0.01658311851158037 
0 
0 
0 
0 
0 
-0.0123966360449585 
0.002560596036626999 
0 
0 
0 
0 
0 
-0.005038639313227578 
0.01369758725744921 
0 
0 
0 
0 
0 
0 
-0.04856911061894131 
0 
0 
0 
0 
0 
0 
0 
0 
-0.02254194272906289 
0 
0 
0 
0 
0 
0 
0 
0 
0 
0 
0 
0 
0 
0 
0 
0.002044006146149611 
0 
0.0006203617616632416 
-0.002460837151830094 
0.0002911584799535388 
0 
0 
0.00212932399569565 
0 
0 
0 
0 
0 
0.0119114192837716 
0 
0 
0 
0 
0 
0 
0 
0 
0 
0 
0 
0 
0 
0 
0 
0 
0.01934619897750149 
0 
0 
0 
0 
0.02912478944851334 
0 
0 
-0.0123966360449585 
0 
0 
0 
0.007389926084221068 
0 
0.2384550533779118 
0 
0.0001222039384387087 
0 
0 
0 
0 
0 
0.009059607079103648 
0 
0 
0.01098735336705282 
0 
0 
0 
0 
0 
0 
-0.0667152734430236 
0 
0 
0 
0.009093268105662142 
0 
0 
0 
0 
0 
0.01502288191809602 
0 
0 
0.0002820848922113885 
0 
0 
0.009764324578758357 
0 
0 
0 
0 
0 
0 
0 
0 
0 
0 
0 
0 
0 
0 
0 
0 
0 
0 
0 
0 
0 
-0.2807591345824981 
0.005866164887437158 
0 
0 
0 
0 
0.003700620805122133 
0 
0 
0.1451083289057217 
0 
0 
0 
0 
0 
0 
0 
-0.01520620699530368 
0 
-0.2686272841575891 
0 
0 
0 
0.003072735973198718 
0 
0 
0 
0 
-8.673617379884035e-19 
0 
0 
0 
-1.734723475976807e-18 
0.0008071162689712247 
0 
0 
0 
0 
0 
0 
0 
0 
-0.02644940983709235 
0 
0 
0 
-0.001486504202191684 
0 
0.02310937255926979 
0 
0 
0 
0 
0 
0 
0 
0 
0 
0 
0 
0 
0 
-0.01655991961941017 
0.02912478944851334 
0 
0 
0 
0 
0 
0 
0 
0 
0 
0 
0 
0 
0 
-0.001153465154889722 
0 
0 
0 
0 
0 
0 
0 
0 
0 
0 
0 
0 
0.004009503390308674 
-0.0501949161030894 
-0.002720641748584963 
0 
0 
0 
0 
0 
-4.336808689942018e-19 
0 
0 
0 
2.710505431213761e-20 
0 
0 
0 
0 
-0.01127097136453144 
0 
0 
0 
0 
0 
0 
0 
0.07916921976233007 
0.002243547713532785 
0 
0 
0 
0 
0.07645694880062265 
0 
0 
0 
0 
0 
0 
0 
0 
0 
0 
0 
0 
0 
-0.005674109746908633 
0 
0 
0 
0 
0.002572206634950129 
0 
0 
0.0008071162689712247 
0.002215018635621032 
0 
0 
0 
0 
0 
0 
-0.02309443551937933 
0 
0.009530504409541604 
0 
0 
0 
0 
-0.008593046682467026 
-0.0123966360449585 
0 
0 
-0.0004921674303660173 
0 
0 
0 
0 
0 
0 
0.01999277241286277 
0 
0.04312471344732659 
0 
0 
0 
0 
0 
0 
0.04933664694722628 
0 
-0.09002116996985382 
0 
0 
0.6666666666666666 
-0.007621960904475228 
0 
0 
0 
0 
0.002248735271852699 
0 
0 
0 
0 
0.00212932399569565 
0 
-0.0123966360449585 
0 
0 
0 
0 
0 
0.003127073886109943 
0 
-0.1733392378152597 
0 
0 
0 
0.02912478944851334 
-0.0123966360449585 
0 
0 
-0.02500188592136201 
0 
0 
0 
0 
0.0288789981309438 
0 
0 
0 
0 
0 
0.003331575776498914 
0 
0 
0.02101682932060858 
0 
0 
0 
0 
0 
0 
-0.0305165797900879 
0 
0 
0 
0 
0 
0.004009503390308674 
0 
0 
0 
0 
-0.02625316902513635 
-0.06787698602786416 
0 
0 
0 
0.02202331121898674 
0 
0 
0.0006203617616632416 
0 
0 
0 
0 
0 
0 
0 
0 
0 
0 
0 
0.02409991739410221 
0 
0 
-0.0123966360449585 
0 
0.0003964127133367869 
0.01369758725744921 
0 
0.01825125248818756 
0 
0 
0.002868343779586828 
0 
0 
0 
0 
0 
0 
0 
0 
-2.032879073410321e-20 
0.0006203617616632416 
-0.003372495913834018 
0 
0 
0 
0 
0 
0.01262031078405064 
0.04475283995060243 
-0.03204101589862403 
0 
0 
0 
0 
0.002733187908512437 
0 
0 
0 
0 
0 
0 
0 
0 
0.003564386794136171 
0 
0 
0 
4.03187682893047e-18 
0.003270864127016724 
0 
0 
0 
0 
0 
0 
6.776263578034403e-21 
0 
0 
-2.032879073410321e-20 
0 
0 
-2.642742795433417e-18 
0 
-0.02283605460849748 
0 
0 
0 
0.02350864500558153 
0.3015586833704697 
0 
0 
0 
0 
0 
0 
0 
0 
0 
-0.004447239399954216 
0 
0 
0 
0 
0 
0 
0 
0 
0.06710728499177905 
0 
0 
0 
0 
0 
0 
0 
0 
0 
0 
0.2857142857142857 
0 
0 
0 
0 
0.002733187908512437 
0 
0 
0 
0 
0 
-0.0123966360449585 
0 
0.05825887802656304 
0 
0 
0 
0 
-0.003250183125219732 
0 
0 
0 
0 
0 
0 
0 
0 
0 
-0.01007727862645516 
0 
0 
0.3746253988266638 
0 
0 
0 
0 
0 
0 
-0.004325303698997657 
0 
0 
0 
0 
0 
0 
0 
0 
0 
0 
0.007440949458056763 
0 
0 
0 
0 
0 
0.009366398236935398 
0.5039857711486547 
0 
0.03524247586704526 
0 
0 
0 
0.0002911584799535388 
0 
0 
0 
0 
0 
0 
0 
0 
0 
0 
0.02796477181903098 
0 
0 
0 
0 
0 
0 
0 
0 
0 
0 
0 
0.2925947492689428 
0 
0 
0 
0 
0 
-0.05806530198671624 
0.003320731996209101 
0 
0 
0 
0 
0 
0 
0 
0 
0 
0 
0 
0 
0 
0 
0 
0 
0 
0 
0 
-0.007281667656722426 
-0.003066749963439598 
0 
0 
0 
-0.0521869682793451 
0 
0 
0 
0 
0.003699873389317657 
0.012813667936103 
0 
0 
0.03495839940978766 
-0.1009370231761894 
0.001266117998230149 
0 
0 
0 
-0.04040306183390242 
0.004334384644856595 
-2.168404344971009e-19 
0 
0.003332410817357095 
0 
0 
0 
0 
0 
0 
0 
0 
0 
0 
0 
0 
0 
0 
0.03423528973304046 
0 
-0.01696222702866989 
0 
0 
0.008213621212179395 
0 
0.006652587212636771 
0 
0 
0 
0 
0 
0 
0 
0 
0 
0 
0 
-0.007778443512228633 
0 
-0.005674109746908633 
0 
0.0002126349040371329 
0 
0 
-0.05947101105337554 
0 
0 
0 
0.0008071162689712247 
0 
0 
0.01603415377754102 
0 
0 
0.0006405769483449327 
0 
0 
0 
0 
0 
0 
0 
0 
0 
0 
0 
0 
0 
0.01558351459480251 
0 
0 
0 
0 
-0.04075137916024998 
-0.006572100970809627 
0 
-0.01568750302684075 
0 
0 
0 
0 
0.013429134529306 
0 
0 
0 
0 
0 
0 
0 
-0.008722126355017892 
0 
0 
0 
0 
0 
0 
0 
0 
0 
0 
0 
0 
0 
0 
0 
0 
0 
0 
0 
0 
0 
0 
0 
0.0113413652946622 
0 
0.04187194420578102 
0 
0 
0 
0.1548395880954083 
0 
0 
0 
0 
0 
0 
-4.065758146820642e-20 
0 
0 
0 
0 
0 
0 
0 
0 
0 
0 
0 
-0.01568320894474735 
0.3419658638979872 
0 
0.0002820848922113885 
0 
0.001614232537942449 
0 
0 
0 
0 
0 
0 
0.001889035686991799 
0 
0 
0 
0 
0 
0 
0 
0 
0 
0 
0 
0 
0 
0 
0 
0 
0 
0 
0.02817772747167312 
0 
0 
0 
0 
0 
0 
0 
0 
0 
0 
0 
0 
0 
0 
0.01143351220620381 
0 
0 
0 
0 
0 
0 
0 
-0.03540819150129122 
0 
0 
0 
0 
-0.08790227667558405 
0 
0 
0 
0 
0 
-0.00769362041215571 
0 
0 
0.0002820848922113885 
0 
0.0966583773923971 
0 
0 
0 
-0.00939620155975473 
0 
0 
0 
0 
0 
-1.301042606982605e-18 
0 
0 
0 
0 
0 
0 
0 
0 
0 
0 
0 
0 
0.01118397484596387 
0 
0 
0 
0 
0 
6.776263578034403e-21 
0 
0 
0 
-0.02639376170049956 
0.00148247080188236 
0 
0 
0 
0 
0 
0.1835102449413756 
0 
0 
0.01568597249839036 
0 
0 
0 
0 
0.008509759220662289 
0 
0 
0 
0 
0 
0 
0 
0 
0 
0 
0 
0 
0 
0 
0 
0 
0 
0.006097978614931289 
0 
0 
0 
0 
0 
0 
0 
0 
0 
1.390641021758052e-05 
0 
0 
0.07278885331562691 
0 
0 
-0.0004921674303660185 
0 
0 
0 
0 
0 
0.4283059363491923 
0 
0 
-0.06404107926920712 
0 
0.0006405769483449327 
0 
0 
0 
0.08515278738849028 
-0.1213965638672063 
0 
0.00212932399569565 
-0.02380517638117833 
0 
0.02981872613238774 
0.0006203617616632416 
0 
0 
0 
0 
0 
0 
0.002243547713532785 
0 
0 
0 
0 
0 
0 
0 
0.01756375100192594 
0.04282904196215163 
0 
0 
0 
0.0006405769483449327 
0 
0 
0 
0.006097978614931289 
0 
0 
0 
0 
0.03912363124227265 
0 
0 
0 
0 
0 
0 
0 
0 
0 
0 
0 
0 
0 
0 
0 
0 
0 
0 
0 
0 
0 
0 
0 
0 
0 
0 
-0.05022534719109627 
0 
0 
0 
0 
0 
0 
0 
0 
0 
0 
-0.1717334980867351 
0 
0 
0 
0.1206038464919461 
0 
0 
-1.084202172485504e-19 
0 
0 
0.2700115756045918 
0 
0 
0 
-0.01374812263947856 
0 
0.002733187908512437 
0 
0 
0.01396338130835252 
0 
0 
0 
0 
0 
0 
0 
0 
0.02389979076984198 
0 
0 
0 
0 
0.002791049115910339 
0 
0 
0 
0 
0 
0 
-1.084202172485504e-19 
0 
6.776263578034403e-21 
0.002572206634950129 
0.1004698372109091 
0 
0 
0 
0 
0 
0 
-0.0123966360449585 
0 
0 
0.01188810282937033 
0.03600784640635196 
-0.01550650059826431 
0.003270864127016724 
0.09663262407911818 
0 
0 
0 
0 
-0.01390718139133913 
8.145068820797352e-18 
0 
0 
0 
0 
0 
0 
0 
0 
0 
0 
0 
0 
0 
0 
0 
0 
0 
0.004791702575925268 
0 
0.0008071162689712247 
0 
0 
0.0002911584799535388 
0 
-0.001968669721464069 
0 
0.05753303185881474 
0 
0 
0 
0 
-0.001266017753981999 
0 
0 
0 
0.002733187908512437 
0 
0 
-0.0123966360449585 
0 
0.01140694324046785 
0 
-0.03753265765706168 
0 
0 
0 
0 
0 
0 
0 
0 
0 
0 
0 
0 
0 
0 
0 
0 
0.03904851544469715 
0 
0 
0 
0 
0 
0 
0 
0 
0 
0.02244700195534384 
0.002248735271852699 
0 
-0.08406630623830834 
0 
0 
0.1495159396546145 
0 
0 
0 
0 
0 
0 
0 
0.003412219995257185 
-0.02170110670154792 
0 
0.1060070467924946 
0.007559901690763569 
0 
0 
0 
0 
-2.032879073410321e-20 
-0.01099459885660858 
0 
0 
0 
0 
0.0795722076187563 
0 
0 
0 
-2.032879073410321e-20 
0 
0 
0 
0.0695064063336928 
0 
0 
-0.1024440961280591 
0 
0 
0 
-0.0717910740200334 
0 
0 
0.02080289974190694 
0 
0 
0.009645612133333573 
0 
0 
0.006097978614931289 
0 
0 
0 
0 
0 
0 
0 
0 
0 
0 
0 
0 
0 
0 
0 
0 
0 
-0.03026552625841621 
0.01396338130835252 
0.003055807999847766 
0 
0 
0.04229820114302021 
-0.01745116845319152 
0 
0.0006203617616632416 
0.03524836372536076 
0 
0 
0 
0 
0 
0 
0 
0 
0 
0 
0 
0 
-0.02462374912175331 
0 
0 
0 
0 
0 
0 
0 
0 
-0.000403019882814177 
0 
0 
0 
0 
0 
-0.0847636424545207 
0 
0.0006203617616632416 
0 
0 
0 
0.00212932399569565 
0 
0 
0 
-0.0123966360449585 
0 
0 
-0.0004921674303660173 
0 
0 
0 
0 
0 
0 
0 
0 
0 
0 
0 
0 
0 
0 
-0.05947101105337554 
0 
0 
-2.032879073410321e-20 
0 
0 
0 
0 
0 
0 
0 
0 
0 
0 
0 
0.0113413652946622 
0 
0 
0 
0 
0 
0.01320094079021289 
0 
0 
0 
0 
0 
0 
0 
0.02770401393956821 
0 
0 
0 
0.1019140147620011 
0 
0 
0 
0 
0 
0 
0 
0 
-0.000403019882814177 
0 
-0.04090369739151228 
0.008030099520851468 
0 
0 
0 
0 
0 
0 
0 
0 
0 
0 
0 
0 
0 
0 
0.4835555778663572 
0 
0 
0 
0 
0.03215069476264526 
0 
0 
0 
0.01675509195692193 
0 
0 
0 
0 
-0.06970211650485801 
0 
0 
0 
0 
0.1474644308137593 
0 
0 
0 
0 
0 
0 
0.02244700195534384 
0 
0.002243547713532785 
0.05917531336151595 
0.03837105967669455 
0 
0 
0 
0 
-0.1988510128029521 
0 
0 
0.009300674077608019 
0 
0 
0 
0 
0 
0 
-0.01989353461427605 
0 
0.02804717460612863 
0 
0 
0 
0.0006405769483449327 
0 
0.2815797904337164 
0 
0 
0 
0 
0 
0 
0 
0 
0 
0 
0 
0 
0 
0.04205278310621166 
0 
0 
0 
0 
0 
0 
0 
0 
0 
0 
0 
0 
0 
0 
0.0006203617616632416 
0 
0 
0 
0 
0.008653183496976302 
0 
0 
0 
0.05623489961894625 
-0.02344303325863368 
0 
-2.032879073410321e-20 
0.001503866007371196 
0.222691571652074 
0 
0 
0 
0 
0.1169078295767534 
0 
0 
0 
0.1093612491941567 
0 
0 
0 
0.0006203617616632416 
0 
0 
0 
0 
0 
0 
0 
-0.002198188760499623 
0 
0 
0 
0 
0 
0 
0.004941709794824215 
0.0222141053885886 
0 
0 
0 
0 
-0.01679675644183721 
0.04277351264488412 
0 
0.006652587212636771 
0 
0 
0 
0.002243547713532785 
0 
0 
0 
0 
0.02009467829723348 
0 
0 
0 
0 
0 
0 
0.03974830769983371 
0 
-0.01814438070169316 
0.4042396917502997 
0 
0 
0 
0 
0 
0 
0 
0 
0 
0 
0 
0 
0.0159179833835789 
0 
-0.0065975591242485 
0 
0 
0 
0 
-7.047314121155779e-19 
0 
0 
0.02244700195534384 
0 
0 
0 
0 
0 
0 
0 
2.710505431213761e-20 
0 
0 
0 
0 
-2.032879073410321e-20 
0 
0 
0.01804341195174858 
0 
0 
0 
0 
0 
0 
0 
0 
0 
-0.01456333531344487 
0 
0.1082194874626563 
0 
0 
0 
-0.02020120962873266 
-0.009864981435952942 
0 
4.336808689942018e-19 
0 
0 
0 
0 
0 
0 
0.06717880811913604 
0.0006405769483449327 
-0.0001434850458612467 
0 
0 
0 
0 
-0.0123966360449585 
0 
0 
0.004009503390308674 
0 
0.00212932399569565 
0 
0 
0 
0 
0 
0 
0 
0 
0.07591238934296293 
0 
0 
0 
0 
0 
0 
-0.02397158828061966 
0 
0 
0 
0 
0 
0 
0 
0.001531882003280022 
0 
0.001434171889793414 
0 
0 
0 
0 
0 
0 
0.0006405769483449327 
0.001614232537942449 
0 
0 
0 
0 
0 
0 
0 
0 
0 
-2.032879073410321e-20 
0 
0 
0.003912226864998499 
0 
0 
0 
0 
0 
0 
0 
0 
0 
0 
0 
0 
0 
0 
0 
0 
-0.001326653452475096 
0 
0 
0 
0.002248735271852699 
0 
0 
0 
0 
0 
0 
0.004009503390308674 
0 
0 
1.01643953670516e-19 
0 
0 
0 
0.0172385250105314 
0.003055807999847766 
0 
0 
0 
0 
0 
0 
-1.734723475976807e-18 
0 
0 
0 
0 
0 
0 
0 
0 
0 
0 
0 
0 
-0.04754741066478364 
0 
0 
0 
0.03218519990792949 
0 
0 
0 
-0.0123966360449585 
-0.2531046890131922 
0 
0 
0 
0 
-0.0123966360449585 
0 
0 
0 
0 
0 
0 
-0.0123966360449585 
0 
0 
-0.0123966360449585 
0 
0 
0 
0 
0.05403550176557197 
0 
0 
0 
0 
0 
0 
0 
0 
0 
0 
0 
0 
0 
6.776263578034403e-21 
0 
0 
-0.02059847479038335 
0 
0 
0.001434171889793414 
0 
-0.005606287375351682 
0 
0.0073853660126811 
0 
0 
0 
0 
0 
-0.007778443512228633 
0 
0 
0 
0 
0 
0 
0 
-0.01510282918964609 
0 
0 
0 
0 
0.0006405769483449327 
0 
0 
0 
0 
0 
0.004009503390308674 
0 
-0.005038639313227578 
0 
0 
0 
0 
0 
0.0002820848922113885 
-0.006669535340438774 
0 
0 
0 
0 
0 
0 
0 
0 
0 
0 
0 
0 
0 
0 
0 
0 
0 
0.02350864500558153 
0.3751813739752454 
0 
0 
0 
0 
0 
0.1569497121289835 
0 
0 
0 
-0.3103219926820555 
0 
0 
0 
0 
0 
8.673617379884035e-19 
0 
0 
0 
0 
0.0278999339764618 
-2.032879073410321e-20 
0.0006405769483449327 
0.01584028630237846 
0 
0 
0 
0 
0.001434171889793414 
0 
0 
0 
0 
0 
0 
0 
0 
0.0006405769483449327 
0 
0 
0 
1.626303258728257e-19 
0.1385315578776377 
0 
-0.004360008616094789 
0 
0 
0.01557950428563535 
0 
0 
0 
0 
0 
0 
0.01684116380168935 
-5.421010862427522e-20 
0 
-0.0275487221966282 
0 
0 
0 
0 
0.00212932399569565 
0 
0 
-4.065758146820642e-20 
0 
0 
0 
-0.01214436597437261 
0 
0 
0 
0.002247781401749092 
0 
0 
2.168404344971009e-19 
0 
0 
0 
0 
0 
0 
0 
-0.04449177109324273 
0 
0 
0 
0 
0.007559901690763569 
0 
0 
0 
0 
0 
0 
0 
0 
0 
0 
0 
0 
0 
0 
0 
0 
0 
0 
0 
0 
0 
0 
-0.1028049893473309 
0 
0 
0 
-0.002497088777604086 
0.02394083406187821 
0 
0.0002820848922113885 
0 
0 
0.03059573065408628 
0 
0 
0 
0 
0 
0 
-0.06296444583222932 
0 
0 
-4.989024059327829e-19 
0 
0 
0 
0 
0 
0 
0 
0 
0 
0 
0 
0 
0 
0 
0 
0 
0 
0 
0 
0 
0 
4.336808689942018e-19 
0 
0 
0 
0 
0 
0 
0 
0 
0.003055807999847766 
0 
0.0006405769483449327 
0 
0 
0 
0 
0 
0 
0.05797146842558595 
0 
0.008899343550235332 
0 
0.08116104133749277 
-0.00295300458219611 
0 
0 
0 
0 
0 
0 
0.0002820848922113885 
0 
0.0002911584799535388 
0.004276178099796256 
0 
0 
0 
0 
0 
0 
0 
0 
0 
-0.004930489119561774 
0.0002911584799535388 
0 
0 
0 
0 
0 
0 
0.0255300765001944 
0.003699873389317657 
0.01627255805876913 
0.0008071162689712247 
0 
0 
0 
0 
-0.02309443551937933 
0 
0 
0 
0 
0 
0 
0 
-0.1899929633223617 
0 
0 
0 
0.06802928127946896 
-0.0004063428717580727 
0 
0.0113413652946622 
0 
0 
0 
0 
0 
0 
0 
0 
0 
0 
0 
0 
0.1297892674703555 
0 
0.007944152524343547 
0 
0 
0 
-0.04724396606371823 
0 
0 
0 
0 
0 
0 
0 
0 
0 
0 
-0.0711190211805643 
0 
-2.032879073410321e-20 
0 
0 
0 
0 
0 
0 
0 
0.6666666666666666 
0 
0.3165471502163192 
0 
0 
0.01794556983953084 
0 
0 
0 
0.07644506878660133 
0.01145084512910632 
0 
0 
0 
0 
0.04395307289704965 
0 
0.0248531292482608 
-0.01605488295440707 
0.09888954651532512 
-0.01696222702866989 
0.01502288191809602 
0 
0 
0 
-2.032879073410321e-20 
0 
0.3875643033952889 
0 
0 
-0.02380517638117833 
0 
0 
0 
0 
0 
0 
0 
0 
0 
0 
0.03451259243620399 
0 
0 
0 
0.02718423799052101 
0 
0 
0 
0 
0 
0 
0 
0 
-1.084202172485504e-19 
0 
0 
0 
0 
0 
0 
0.002733187908512437 
0.2389816394567056 
0 
0 
0 
0 
-0.01617967045720677 
0 
0 
0.0171841429508364 
0 
9.063951834786845e-05 
-0.000403019882814177 
-0.001874679520611858 
0 
0 
0 
0 
0 
0 
0 
0 
0 
0 
0 
0 
0 
0 
0 
0 
0 
0 
0 
0.03325987401012002 
0.0006203617616632416 
0 
0 
0 
-0.0004921674303660173 
0 
0 
0 
0 
0 
0.002248735271852699 
0 
0 
0 
0 
-0.0123966360449585 
0 
0 
0 
0 
0 
0 
0 
0 
0 
0 
0 
0 
0 
0 
0 
0 
0 
0 
3.469446951953614e-18 
0 
0 
0 
0 
0 
0 
0 
0 
0 
-0.01588175771504925 
0 
0 
0 
-0.03471284850557273 
0 
0 
0 
0 
0 
0 
0.0006405769483449327 
0 
0 
0 
0 
0.005631296132836153 
0 
0 
0 
0 
0 
0 
0 
0 
0 
0 
0 
0 
0 
0 
0.0002820848922113885 
0 
-0.07419376596020749 
0.07983492572865331 
0 
0 
0 
0 
0 
0 
0 
0 
0 
0.05572804764995568 
-0.03540819150129122 
0 
-0.08831307819339906 
0 
0 
0 
3.388131789017201e-20 
0 
0 
0.004009503390308674 
-0.007479115395166276 
0 
0 
0 
0 
0 
0 
0 
0 
0 
0 
0 
0 
0 
0.0008071162689712247 
0 
0 
0 
0 
0 
0 
0.008653183496976302 
0 
0 
0 
0 
0 
0 
-0.01474846626978631 
0 
0 
0 
0 
0 
-0.003426434987027774 
0.0006405769483449327 
0.08453698946752761 
0 
0 
0 
0 
0 
0 
-0.0123966360449585 
0 
0 
0 
0 
0 
0 
0 
0 
0 
0 
0 
0.0002911584799535388 
0 
0 
0 
0 
0 
0 
0 
0 
-0.01180507691411715 
0 
0.006097978614931289 
0 
-0.0123966360449585 
0 
0.04001472281895021 
-0.1245185892531188 
0.02202331121898674 
0 
0.5365934799228425 
0.01424801076834365 
0 
0 
0 
0 
0 
-0.0008052981264409913 
0 
0 
0 
0 
0 
0 
0 
0.006730643140598369 
0 
0 
0.002044006146149611 
0 
0 
0 
0 
0 
-0.186263723775364 
0 
0 
0 
0 
0 
0 
0 
0 
0 
0 
0 
-0.1414578572133958 
-0.03494616950057655 
0 
0.02655479839539546 
0 
0 
0 
0 
0 
0 
0 
0 
0 
0 
0 
0 
0 
0 
0 
0 
0 
0 
-0.009764803355284729 
0.0002820848922113885 
0 
0 
0 
0 
0 
0.00074174796192545 
0 
0 
0 
0 
0 
0 
0 
0 
0.02534224568400791 
0 
0 
0.002044006146149611 
0 
0 
0 
0.07925697457255024 
0 
0 
0.2368900841136288 
0 
0.01953336674842538 
0 
0 
0 
0 
0 
0 
0 
0 
0 
0 
0 
0 
0.04537727112816943 
0 
0 
0 
0 
0 
0 
0 
0 
0.1136223134453277 
0 
0 
0 
-2.032879073410321e-20 
0 
0 
0 
0 
0.0002911584799535388 
0 
0 
0 
0 
0 
0.0006405769483449327 
0 
0 
0 
0 
0 
0.02730037424333084 
0.05321683402958319 
0 
0 
0 
0 
0 
0 
0 
0 
0 
0 
0 
0 
0 
0 
0 
0 
0 
0 
0 
-0.003764944638531512 
0 
0.03712927391877341 
0 
0.0171841429508364 
0.01689590557527149 
-0.3702338251694993 
0 
0.1517194402653685 
0 
0 
0 
0 
0 
-0.04859378231302047 
0 
0 
0 
0.003628156105064148 
0 
0.08755904888897077 
0 
0 
0 
-0.0123966360449585 
0.09485713168021104 
0.0006405769483449327 
0 
0 
0 
0 
0 
0 
0 
0 
0 
0 
0 
0 
0 
0 
-0.08324820190181557 
0 
0 
-0.01010060481436633 
0 
-2.032879073410321e-20 
0 
0 
0 
0 
0 
0 
0 
0 
0 
0 
0 
0 
0 
0.3936383976242293 
0 
0 
0 
-0.02380517638117833 
0 
0 
0 
0 
0 
0 
0 
0 
0 
0 
0 
0 
0 
-0.003390424008865825 
0 
0 
0 
0 
0 
0 
0 
0 
0 
0 
0.1496246294138008 
0 
-0.05019491610308936 
0 
0 
-0.008047087098741933 
0 
0 
0 
-0.1596947037486478 
0 
0 
0 
0 
0 
0 
0 
0.4104545533815789 
0 
1.390641021758052e-05 
0 
0 
0 
0 
0 
0 
0 
0 
0 
0 
0 
0.05989013796652237 
0 
0 
0 
-0.01159842699286656 
0 
0 
0 
0 
0 
0.0006405769483449327 
0 
0 
0 
0 
0 
0 
0.0006203617616632416 
0 
0 
0 
0 
0 
0 
0 
0 
0 
0 
0 
0 
0 
0 
0 
0 
0 
0 
0 
0 
0 
0 
0 
0 
-0.01380664587917207 
0 
0 
0 
0 
-0.01970536193891305 
0 
0 
0 
0 
0 
0 
0 
0 
0.1248290187702887 
0 
0 
0 
0 
0.04337828604601981 
0 
0 
0 
0 
0 
0 
0 
0 
0 
0 
0 
0 
0 
0 
0 
-0.009261574300908324 
0 
0 
0 
0 
0 
-0.01674265869072256 
0 
0 
0 
0 
-0.05405942499939492 
0 
0 
-4.065758146820642e-20 
-3.144186300207963e-18 
0 
0 
0 
0 
0 
0 
0 
0 
-0.01289443143119838 
0 
0 
-0.008555735584581154 
0 
0 
0 
0 
0 
0 
0 
0 
0 
0 
0 
0.0073853660126811 
0 
0 
0 
0 
0 
0 
0 
0 
0 
0 
0 
0 
0 
0 
0 
0 
0 
0.00212932399569565 
0 
0 
0 
0 
0 
0 
0 
0 
0 
-0.005526184899085016 
0 
0 
0 
0 
0 
0 
0 
0 
0 
0 
0 
0 
0 
0 
0 
0 
0 
0 
0 
0 
0 
0 
0 
0 
0 
0 
0 
0 
0 
0 
-0.01623362708272754 
0 
0 
0.0006405769483449327 
0 
0 
0.01745843804335949 
0 
0 
0 
0 
0.003123813421348532 
0 
0 
0 
0 
0 
0 
9.063951834786845e-05 
0 
0 
0 
0 
0 
0 
0 
0 
0 
0 
0.0005823169599070777 
0 
0 
0.2402837493651994 
0 
0 
-0.06572108226995264 
0 
0 
0 
-0.01997765934677687 
0 
0 
0 
0 
0 
0 
0 
0 
-0.09610884322725793 
0 
0 
0 
-0.1643737759711256 
0 
0 
0 
0.02928693123302439 
0 
0 
0.1363447240180262 
0 
0 
0.03423528973304046 
0.0006203617616632416 
0 
0 
0 
0 
0.003628156105064148 
0 
0 
0 
-0.02832735590178454 
0 
0 
0 
0.002248735271852699 
0 
0 
0 
0 
0 
0 
0 
0 
0 
0 
0 
0 
0 
0 
0 
0.222981903167939 
0 
0 
0.002733187908512437 
0 
0 
0 
0 
0.004009503390308674 
0 
0 
0 
0 
0 
0 
0.08055824203425285 
0 
0 
0 
0 
0 
0 
0 
0 
-0.1200524795673952 
0 
0 
0 
0 
-0.0170970284094111 
0 
0 
0 
0 
0 
0 
0 
0 
0 
0 
0 
0 
0 
0 
0 
0 
0 
0 
0 
0 
0.02005831277004365 
0.002243547713532785 
0 
0.01385407954174253 
0 
-0.07125161681412587 
0 
0 
0 
0 
0 
0.007944152524343547 
0 
0 
0 
0 
-0.02734790755280292 
0 
0 
0 
0 
0 
0 
0 
0 
-0.03384877838218571 
0 
0 
0 
0 
0 
-0.0123966360449585 
0 
0 
-0.01736757342034917 
-0.05316842969835636 
0 
0 
0 
-0.05156376039311551 
0 
0 
0 
0 
0 
0 
0 
0 
0 
0.02766504530995427 
0 
0 
0 
0 
0 
0 
-0.02273561249212553 
0 
0 
0 
0 
0 
-0.001476502291098053 
0 
0 
0 
0.04218254365620983 
0 
0.006652587212636771 
0 
0 
0 
0 
0 
0.001434171889793414 
0 
1.897353801849633e-19 
0 
0 
0 
0 
0 
0 
0 
0 
0 
0 
0 
0 
-0.06994117640341048 
0 
0.008653183496976302 
0 
0.003055807999847766 
-0.01296918819720367 
0 
0 
0 
0 
0 
0.0006405769483449327 
0 
3.388131789017201e-21 
-4.336808689942018e-19 
0 
-0.0004921674303660173 
0 
0 
-1.301042606982605e-18 
0 
0 
0 
0 
-0.03557061369959993 
0 
0 
0 
0.08898908481101019 
0 
0 
0 
0 
0 
0 
-2.032879073410321e-20 
0.001266117998230149 
0 
0 
0 
0 
0 
0 
0 
0 
0 
0 
0.002243547713532785 
0 
0 
0.00892651490372497 
0 
0 
0 
0 
0 
0 
0 
-0.0123966360449585 
0 
0 
0 
0 
0 
0.0255300765001944 
0 
0 
0 
0 
-0.002583320826690414 
0 
0 
0 
0 
0 
0 
0 
0.348672543661333 
0 
0 
0 
0 
0 
0 
0.0005195311466391815 
0 
0 
0.0002820848922113885 
0 
0 
0.0505106864485116 
0 
0 
0 
0 
0 
0.3395822367081204 
0 
0 
0 
0 
0 
0 
0 
0 
0 
0.02381851857411917 
0 
0 
0 
-0.01186083228219674 
0 
0 
0 
0 
0 
0.01856357889468224 
0 
0 
0 
0 
0 
0 
0 
-7.326834993749698e-20 
0 
0 
0 
0 
0 
0 
0 
0.0172385250105314 
0 
0 
0 
0 
0.07901712791678875 
0 
0 
0 
0 
0 
-0.0275487221966282 
0 
0 
0 
0 
0 
0 
0 
0 
0 
0 
0.04027692432062503 
0 
0 
0 
0 
0.02609414995060806 
0 
0 
0 
0 
0 
0 
0 
0 
0 
0 
0 
0 
0 
0 
0 
0 
-0.02713321198568829 
0 
0 
0 
0 
0 
0 
-0.001952960671056946 
0 
0 
0 
0 
0 
0 
0.01882046157175078 
-2.032879073410321e-20 
0 
0 
0 
0 
0 
0 
0 
0 
0 
0 
0 
0 
0 
0 
0 
0 
0 
0 
0 
0 
0 
0 
0 
0 
0 
0 
0 
0 
0 
-0.0007432521010958419 
0 
0 
0 
0 
0 
0.1043235181499185 
0.0002820848922113885 
0 
0 
0 
0.02357449692643751 
0 
0 
0 
0 
0.0002911584799535388 
0.002733187908512437 
0 
-0.01755776143007746 
0 
0 
-0.009816730131113175 
0 
0 
0 
0 
0 
0 
0 
0 
0 
0 
0 
0 
0 
0 
0 
0 
0 
0 
0 
0 
0.0704128502671848 
0 
0 
0 
0 
-0.08385081224468263 
0 
0.001240723523326483 
0 
0.0006203617616632416 
0 
0 
0 
0 
0.09858883378723829 
0 
0 
0 
0 
0 
0 
0 
0.02310937255926979 
0 
0 
0 
0 
0 
0 
0.01101729915384446 
0 
0 
0 
0 
0 
0 
0 
0 
0 
0 
0.1113794484870141 
0 
0 
0 
0.01756375100192594 
0 
0 
-0.006349089665800574 
0 
0 
0 
0 
0 
0 
0 
0 
0 
0 
0 
-1.301042606982605e-18 
0 
0 
0 
-0.5827433046785372 
0 
0 
0 
0.009405219546177922 
0 
0.0006405769483449327 
0 
0.003055807999847766 
-0.3348259149950942 
0.0006405769483449327 
0 
0 
-0.05503760433272278 
0 
0 
0.001434171889793414 
0 
0 
0 
0 
0 
0 
0 
0.01630029738924081 
0.003412219995257185 
0 
0 
0 
1.694065894508601e-20 
-0.007594668749149342 
0 
0 
0 
0 
0 
0 
0 
5.149960319306146e-18 
0 
0 
-0.0001434850458612476 
0 
0 
0 
0.0404228894029231 
0 
-0.0065975591242485 
0 
0 
0.003412219995257185 
-0.08060146633038957 
0.0006107147599597662 
0.0006405769483449327 
0.002195060306781592 
0 
0 
0 
0 
0 
0 
0 
0 
0 
0 
0 
0 
0 
0 
0 
0 
0.01023648060271239 
0 
0 
0 
0 
0 
0.1331176876297768 
0 
0 
0 
0 
0 
0 
0 
0.003055807999847766 
0 
0 
-4.336808689942018e-19 
0.1443476048400556 
0.02209420874007594 
0 
0 
0 
0 
0 
0 
0 
0 
0 
0 
0 
0.003240462780383431 
0 
-3.979358850448201e-05 
0 
0 
0 
0 
0 
0 
0 
0 
0 
0 
0 
0 
0 
0 
0 
-8.131516293641283e-20 
0 
0 
0 
0 
0.03451259243620399 
0 
0 
0 
0 
0 
0 
0 
0 
0 
0 
0 
0 
0 
0 
0 
0 
0 
0 
0 
5.421010862427522e-20 
0 
0 
0 
0.005408515931815765 
0 
0 
0 
0.0006203617616632416 
0 
0 
0 
-0.2850691443799322 
0 
0 
0 
0 
0 
-6.505213034913027e-18 
0 
0 
0 
0.007622260884911051 
6.938893903907228e-18 
0 
0 
0 
0 
0 
0 
0 
0 
0 
0 
-0.01128283926438041 
0 
0 
0 
0.1487038893694811 
0 
0 
0 
0 
0 
0 
0 
0 
0 
0 
0 
0 
0 
0 
0 
0 
0.3473398181578365 
0 
0 
0 
0.04383051257815059 
0 
0 
0 
0 
0 
0 
-0.003574700753263113 
0 
0 
0 
0 
0.0002820848922113885 
0 
0 
0 
0 
0.01178084836993446 
0 
0 
0 
0 
0 
0 
-0.08451731458245426 
0 
0 
0 
0.04231653121128188 
0 
0.02394083406187821 
0 
0 
0 
0 
0 
0 
0 
0 
-0.09775141947297668 
-0.01765378960382512 
0 
0 
0 
0 
0 
-0.0123966360449585 
0.1665796980886134 
0 
0 
0 
0 
-0.03656957643090355 
0 
-0.004789902220747461 
0 
0 
0 
0 
0 
0 
0 
0 
0 
0 
0 
0 
0 
0 
0.01159016523891029 
0 
0.0388113979443953 
0 
0 
-0.0004921674303660173 
0 
0 
0 
0 
0 
0 
0 
0 
0 
0.002733187908512437 
0 
0 
0.0008071162689712247 
0.01208955616592343 
0 
0 
0 
0 
0 
0 
0 
0 
0 
0 
0 
0 
0 
-0.004304810654057998 
0 
-7.958717700896401e-05 
0 
0.01248202657904283 
0 
0 
0 
0 
0 
0 
0 
0 
0.03880941600237069 
0 
0 
0.002522330891480953 
0 
0 
0 
0 
0 
0 
0 
0 
0 
0 
0 
0 
0 
0 
0 
0 
-3.979358850448201e-05 
0 
0 
0 
0 
0 
-2.032879073410321e-20 
0 
0.02845690868843558 
0 
0 
0 
0 
0 
0 
0 
0 
-4.336808689942018e-19 
0 
0 
0 
0 
0 
0 
0 
0.0006203617616632416 
0 
0 
0 
0 
0 
0 
0 
0.09057239822161861 
0 
0.07023358778414845 
0 
0 
0.0006203617616632416 
0 
-0.000403019882814177 
0 
0 
0 
0 
0 
0 
0 
0 
0 
0 
0 
0 
0 
0 
0 
0 
0 
0 
0 
0 
0 
0 
0 
0 
0 
0 
0 
0 
0 
0 
0 
0 
0 
0.003260557358654067 
0 
0.0006203617616632416 
0 
0 
0 
-0.0123966360449585 
0 
0 
0 
0 
0 
0 
0.004423893327757049 
-0.06605400960413935 
0 
-0.003030387654390843 
0.0493332340369928 
0 
0 
0 
0 
0 
0 
0 
0.319032168270597 
0.002248735271852699 
0 
0.04198702654783602 
0.05989013796652237 
0 
0 
0 
0 
0 
0 
0 
0 
0 
0 
0 
0 
0 
0 
0 
0 
0 
0.1276121674869799 
0 
0 
0 
0.07516002353862015 
0 
0 
0.00963752363986755 
0 
0 
0 
0 
0 
0.003628156105064148 
0 
0 
0 
0 
0 
0 
0 
0 
0 
0 
0 
0 
0 
0 
-0.0123966360449585 
0 
0 
0 
0 
0 
0 
0 
0 
0 
0 
0.00212932399569565 
0.0002126349040371329 
0 
0 
0 
0 
0 
0 
0.06732079984068701 
0.03387024761028094 
0 
0 
0 
0 
0 
0 
0 
0 
0 
0.01502459338194423 
0 
0 
0 
0 
0.004629481741548123 
0 
0 
0 
0 
0 
0 
0 
0 
0 
0 
0 
0 
0 
0 
0 
0 
-0.009933991683051558 
0 
-0.01678141410656196 
0 
8.673617379884035e-19 
0 
0 
0 
0 
0 
0 
0 
0 
0 
0 
0 
0.01838882739323193 
0 
0 
0 
0 
0 
0 
0 
0 
0 
0 
0 
0 
0 
0 
0.002733187908512437 
0 
0 
0 
0.02005831277004365 
0 
0 
0 
0 
0.00212932399569565 
0 
0 
0 
0 
0 
0 
-3.979358850448201e-05 
0 
-0.06142588609168283 
0.2692511296356174 
0 
0 
0 
0 
0 
0 
0 
0 
-0.01131061085947047 
0.003072735973198717 
0 
0 
0 
0 
0 
0 
0 
0 
0.01502288191809602 
0 
0 
0 
0 
0 
0 
0 
0 
0 
0 
-0.03139619938689689 
0.0006405769483449327 
0 
0 
0 
0.01247408810726962 
0 
0.1362853544954652 
0 
0 
0 
0 
0 
-0.0123966360449585 
0 
0 
-0.04260717438819261 
0 
0 
0 
0 
0 
0 
0.02157017208155528 
0 
0 
0 
0 
0 
0 
0 
-0.06770263383599387 
0 
0 
-0.007594668749149342 
0 
0 
0.01386648086803366 
0 
0.05063685291497876 
0 
0 
-0.003597498448134256 
-0.01007727862645516 
0 
-2.032879073410321e-20 
0 
0.0008071162689712247 
0 
0 
0 
0 
0 
-0.0067463113535614 
0 
0 
0 
0.003332410817357095 
0.05565527064733939 
0 
0 
0.003331575776498914 
0 
0 
0 
0 
0 
0 
0 
0 
0 
0.005228367648136973 
0 
0 
0 
0.002733187908512437 
0 
0 
0 
0 
0.1491614402558142 
0 
0 
0 
0.2028148078747326 
-1.734723475976807e-18 
0 
0 
0 
0 
0 
3.283827219582913e-06 
0 
-0.008894478799908432 
0 
-0.0004921674303660173 
3.388131789017201e-21 
0 
0.002222950940576583 
0 
0.003607906174893687 
0 
0 
0 
0 
0 
0 
0 
0 
0 
0 
0 
0 
0 
0.009132016797477703 
0 
0 
0 
0 
0 
0 
0 
0.0002911584799535388 
0 
0.09131361125783255 
-0.08625590055632479 
0 
0 
-8.216068469741987e-05 
0 
0.0113413652946622 
0.0002911584799535388 
0 
0 
0 
0.02528813784585104 
0 
0.03484801790926625 
0 
0 
0 
-0.01374234594067821 
0 
0 
0 
6.776263578034403e-21 
0 
0 
0 
0 
-0.04816934939125407 
0.01502288191809602 
0 
0.02770401393956821 
-0.003750501256915343 
0 
0 
0 
0 
0 
0 
0 
0 
0 
0 
0.05842485338128491 
0 
0 
0 
0 
-0.0004921674303660173 
0 
0 
0 
0 
0 
0 
0 
0 
0 
0 
0 
0 
0 
0 
-0.000403019882814177 
0.04543072560511241 
0 
0 
0 
0 
0 
0 
0 
0 
0.1275446931388159 
-0.01251133087848246 
0 
0 
0 
0 
0.003412219995257185 
0 
0 
0 
0 
-0.01276680491930444 
0 
0 
0 
0 
0 
0 
0 
0 
0 
0.02789525760148484 
0 
0 
0 
0.002044006146149611 
6.776263578034403e-21 
6.606856988583543e-20 
0 
0 
0 
0.157772690463034 
0 
0 
0 
0 
0 
0 
0 
0 
0.2166496173733021 
0 
0 
-0.1341492257519371 
0 
0 
0 
0 
0 
0 
0 
-2.602085213965211e-18 
-0.04179874215332895 
0.004496847841544999 
0 
0.2076404387117394 
0 
0.0002911584799535388 
0 
0 
0.03262441176443586 
0 
0 
0 
0 
0 
0 
0 
0 
0 
0 
0 
0.0002820848922113885 
0 
0 
0 
0 
0 
0 
-0.05221281361628866 
0 
0 
0 
0 
0 
0 
0 
0 
0 
0 
0 
0 
0.006140358589782013 
0 
0 
0 
0 
0 
0 
0.009063935292289535 
0.03148924729907324 
0 
0 
0 
0 
0 
0 
0 
0 
0 
-0.03017571242792666 
0 
0 
0 
-0.05114240457949026 
0 
0.01745843804335949 
0 
0.007559901690763569 
0 
0 
0 
0 
0.01999277241286277 
0 
0 
0 
0 
0 
0 
0 
0 
0 
0 
0 
0 
-0.07234793048431282 
0 
0 
0 
0 
0.002243547713532785 
0 
0 
0.08432911185572052 
0 
0 
0 
0 
0 
0 
0 
0 
0 
0 
0 
0 
0 
0 
0 
0 
0 
0.005885913950892305 
0.0002911584799535388 
0 
0 
0 
0 
0 
0 
0 
0 
0 
0 
1.734723475976807e-18 
0 
-0.006398176594758227 
0 
0 
0 
0 
0 
0 
0 
0.02161645147212339 
0 
0.04283404386183379 
0 
0 
0 
0 
0 
0 
0 
0 
0 
0 
0.02770401393956821 
0.03325987401012002 
0.02477282894775815 
0 
0 
0 
0 
0 
0 
0.1937746716841319 
0 
0 
0 
0 
0.002733187908512437 
0 
0 
0 
0.0002911584799535388 
0 
0 
0 
0 
0 
0 
0 
0 
0.1043235181499185 
0 
0 
0 
0 
0 
0 
0 
0 
0.02555712134654781 
0 
0 
0 
0 
0 
0.1447160779193155 
0.002243547713532785 
0 
0 
0 
0 
0 
0 
0 
0 
0 
0.006461180085066813 
-0.005038639313227578 
0 
0 
0 
0 
0 
0 
0 
0.05093068915788385 
0 
0 
0 
0.08012645514592068 
0 
0 
0 
0.0503545352941621 
0 
0 
0 
-0.08214374550024364 
0 
0 
0.0009971092570103773 
0 
0 
0 
0 
0 
0 
0 
0.06155573436225716 
0 
0 
0 
0 
0 
0 
0 
0 
-0.0003631837034374908 
0.2397959586126005 
0 
0 
-0.007551414594823043 
0 
0 
0.03486529318539482 
0 
0 
0 
0.0006405769483449327 
-0.0007432521010958419 
-0.0004063428717580727 
0 
0 
0 
0.07228508355092077 
0.00212932399569565 
0 
0 
0.02912478944851334 
0.002243547713532785 
0 
0.002248735271852699 
0 
0 
-5.421010862427522e-20 
0 
0 
0 
0.1221772011562271 
0 
0 
-0.002204341543843626 
0 
0 
0 
0 
0 
0 
0 
0 
0 
0 
0 
-2.032879073410321e-19 
0 
0 
0 
0 
0 
0 
0 
0 
0 
0.008118173040011618 
0 
0 
0 
0 
0 
0 
0 
0 
0 
0 
0 
-0.007213686660599319 
0 
0.0123485600715988 
0 
0 
0 
0 
0.2434012795734347 
-0.0004524299827222907 
0 
0 
-0.0123966360449585 
0 
0.03140828355752634 
0 
0 
0 
0 
0 
0 
-0.02373943331268447 
0 
0 
0 
0 
0 
0 
0 
0.0006405769483449327 
0 
0 
-0.0001589813486409777 
0 
0 
0 
1.721170948820738e-18 
0 
0 
0 
0 
0 
0 
0.01178084836993446 
0 
0.1841731007558664 
1.067261513540418e-19 
0.003912226864998499 
0 
0 
0 
0 
0 
0 
0 
-0.06245134859893663 
0 
0 
0 
0 
0 
0 
0 
0 
-0.02608444192873847 
0 
0 
0 
-2.032879073410321e-20 
0 
0 
0 
0 
0 
0 
0 
0 
0.01524331241433921 
0 
0 
0 
-0.02569938909072968 
0 
0 
0 
0 
0 
0 
-0.00249977169876218 
0 
0 
0 
0 
0 
0 
0 
0 
0 
0 
0 
0 
0 
0 
0 
0 
0 
0 
0 
0 
0 
0 
0 
0 
0 
0 
0 
0 
0 
0 
-0.02506953023159522 
0.002248735271852699 
0 
0 
0 
-0.005749772421212929 
0 
0 
0 
0 
0 
0 
0 
0 
0 
0.08653065537010755 
0 
0 
0 
0 
0 
0 
0.001260938710008173 
0 
0 
0 
0 
0 
0 
0 
0 
-0.0007432521010958419 
0 
0 
-0.02101476562006174 
0.003072735973198717 
0 
0 
0 
0 
0 
0 
0 
0 
0 
0 
0 
0 
0 
0 
0 
0 
0 
0.1714861116623783 
0 
0 
0 
0 
0 
0 
-0.00246083715183009 
0 
0 
0 
0.2263702365424714 
0 
0 
0 
0 
0 
0 
0 
0 
0 
0 
0.008386355539190215 
0 
0 
0 
0 
0 
0 
0 
0 
-0.00239495111037373 
0 
-0.2608910480476268 
0 
0 
0 
0.07334110891240347 
0 
0 
0 
0 
0 
0 
0 
0 
0 
0 
0 
0 
0 
0 
0.003072735973198717 
0 
0 
0 
0 
0 
0 
0 
0 
0.07645037278950029 
0 
0 
-2.032879073410321e-20 
0.0008071162689712247 
0 
0 
0.09091560865396429 
0 
0 
0 
0 
0 
0.135952017775507 
0.0006405769483449327 
0 
0 
0 
0 
0 
0 
0 
0 
0 
0 
0 
0 
0 
0 
0 
-4.336808689942018e-19 
0 
0 
0.01328564948344478 
0.02524961493474857 
0 
0 
0 
0 
0.0008071162689712247 
0 
0 
0 
0 
0 
0 
0 
0 
0 
0 
-0.04709964247792659 
0 
0 
0 
-0.0123966360449585 
0 
0 
0 
0 
0.001826754205781832 
0 
0 
0 
0 
-0.047877451305039 
-0.006749602389007559 
0.1503427743497877 
0 
0 
0 
-0.009933991683051558 
0 
0 
0 
0 
0 
0 
0 
0 
0 
0 
0 
0 
0 
0 
0 
0 
0 
0 
0 
0.0007871910366858258 
0.006097978614931289 
0.0145248739018666 
0.1192083570867939 
0 
0 
0.1852340236884172 
0 
0 
0.009059607079103648 
0 
0 
0.0073853660126811 
0 
0 
0 
0.0154083542878439 
-0.06207550884921847 
0 
0 
0 
0 
0 
0 
0 
0 
0 
0 
0 
0.01867748052411125 
0 
0 
0 
0 
0 
0 
0 
0 
0.0006203617616632416 
0 
0 
0 
0 
0 
-0.1925991027704811 
0 
0 
0 
-0.003606843330299659 
0 
0 
0.01902368453636966 
0 
0 
0 
-0.01518933749829869 
0 
0 
0 
0 
0 
0 
0.006652587212636771 
0 
0.0002820848922113885 
0.01101729915384446 
0 
0.5348882698499746 
0 
0 
0.398750830131434 
0 
0.03500709565950674 
0 
-5.421010862427522e-19 
0 
0 
0 
0 
0 
0 
0.002532235996460297 
0 
-0.03113067579967955 
0 
0 
-0.01004486340994048 
0 
0 
0 
0 
0 
0 
0 
-0.01568150492866475 
0 
0 
0 
0.001431294184697118 
0 
0 
0 
0 
-0.01180388719420061 
0 
0 
0.01317625194688494 
0 
-0.0004921674303660173 
0.0182588248626156 
0 
0 
0 
0.01979936021564076 
0 
0 
0.04534343643613316 
0 
0 
0 
0 
0 
0 
0.03145279876560862 
-2.032879073410321e-20 
0 
0 
0 
-0.08978672503499073 
0 
0.01500349884961623 
0 
0 
0 
0.0006405769483449327 
-0.02092757703560751 
0.0006203617616632416 
0 
0.01863654727649244 
0 
0 
0 
0 
0 
0 
0 
0 
0 
0.005213485662740532 
0 
0 
0 
0 
0 
0 
-0.01686282588021297 
0 
0 
0 
0 
0 
0 
0 
0.02860692972764669 
0 
0 
0 
0 
0.02739647280091825 
0.09442001393185473 
-0.1576304905620971 
0 
0 
0 
0 
0 
0 
0 
0 
0 
0 
0 
0 
0 
0 
0 
0 
0 
0 
0 
0 
0 
0 
0 
0 
0 
0 
0 
0 
0 
0 
6.776263578034403e-21 
0 
0 
0 
0 
0 
0 
0 
0 
0 
0 
0 
0 
0 
0 
0.0006203617616632416 
0.0006405769483449327 
0 
0 
0.0002820848922113885 
0 
0.0006203617616632416 
0 
0.0002911584799535388 
0 
0 
-0.0003631837034374908 
0 
0 
0 
-1.084202172485504e-19 
0 
0 
0 
0 
0 
0.05165458187713412 
0 
0 
0 
0 
0 
0 
0 
0 
0 
-4.336808689942018e-19 
0 
0 
-0.04305645206256568 
0 
0 
0 
0 
-1.558540622947913e-19 
0 
0 
0.0008071162689712247 
0 
-0.03847101705253653 
0 
-0.01778895759981686 
0 
0 
0 
0 
0 
0 
0 
0 
0 
0 
0 
0 
0 
0 
0.02209420874007594 
0 
0.01636799963443348 
0 
0 
0 
0 
0 
0 
0 
0 
0 
0 
0 
0 
0.001434171889793414 
0 
0 
-1.355252715606881e-20 
0 
0 
0 
0 
0 
0 
0 
0 
0 
0 
0 
0 
0 
0 
0 
-0.0576386387115681 
0 
0 
0 
0 
0 
-0.002643045472692222 
0 
0 
0 
0 
0 
0 
0 
0 
0 
0 
0 
0 
0 
0 
0 
0 
0 
0 
0 
0 
0.07023358778414845 
0 
0 
0 
0 
0 
0 
0.009137231231688249 
0.007353442409394066 
0 
-0.002643045472692222 
0 
0 
-0.1277573208075141 
0 
0 
0 
0 
0 
0 
0 
0.02770401393956821 
0 
0.02266427956778886 
0.04402556221098256 
0 
0 
0 
0 
0 
0 
0 
0 
-0.003606843330299659 
0 
0 
0 
-0.005046832547075406 
0 
0 
0 
0 
2.710505431213761e-20 
0.01360586973430144 
0 
0 
0 
0 
0.005912331832820203 
0.02796477181903098 
0 
0 
0 
0 
0.002243547713532785 
0 
0 
0.1466102947796384 
0 
0 
0 
0 
0 
0 
0 
0 
0 
0 
0 
1.761828530288945e-19 
0 
0 
0 
0 
0 
-0.002433904524062171 
0 
-0.2299333240359823 
0 
0 
0 
0 
0 
0 
0 
0 
0.01032248520103839 
0 
0.01354711262880957 
0 
0 
0 
0 
0.02358286410097067 
0 
0 
0 
0 
0 
0 
0 
0 
-0.0123966360449585 
0 
0.05714285714285714 
0 
0 
-0.0004921674303660173 
0 
0 
0 
-0.04419813276709938 
0 
0 
0 
0 
0 
-0.03572361980246351 
0 
0 
0 
0 
0 
0 
0 
0.001518333022047838 
0 
0 
0 
0 
-0.06976745129553692 
0 
0 
0 
0 
0 
0 
0 
0 
0 
0 
0 
0 
0 
0 
-0.07832756740449863 
0 
0 
0 
0 
-0.009478338637734144 
0 
0.005441667592104613 
0 
-0.007594668749149342 
0 
0 
0 
0 
0 
0 
0 
2.676624113323589e-19 
0 
0 
0 
0 
0.0393405544541001 
0 
0 
0 
-0.03297389984455732 
0 
0 
0 
0 
0 
0 
0 
0.003564386794136171 
0 
0 
0.1167327757722228 
0.007944152524343547 
0 
0 
0 
0 
0 
0 
0 
0 
0 
0 
0 
0 
0 
-0.02491260322339951 
0 
0.0008071162689712247 
0 
0 
0 
0.006097978614931289 
-0.0004524299827222907 
0 
0 
0 
0 
0 
0 
0 
0 
0 
0 
0 
0 
0 
0 
0 
0 
0 
0 
0 
0 
0 
0 
0 
0 
0 
0.003072735973198717 
0 
0 
0 
0 
0.02129134402105907 
0 
0 
0 
0 
0 
0 
0 
0 
0 
0 
0 
0 
0.003055807999847766 
0 
0 
-0.0004921674303660173 
0 
0 
0 
-0.01228922822850476 
-0.0123966360449585 
-0.007594668749149342 
0 
0 
0 
0 
0.03592936271291595 
0 
0 
0 
0.2153588948168572 
0 
-0.002018036532268818 
0 
0 
0 
0 
0 
0 
0 
0 
-0.001476502291098056 
0 
0 
0 
0 
0 
0.009645612133333573 
0 
0 
0 
0 
0 
0 
0 
0 
0 
0 
0 
0 
0 
0 
0.002562307793379731 
0.0526180246347244 
0 
0 
0 
0 
0 
0.0002126349040371329 
0 
0 
0 
0 
0 
0 
0 
0 
0 
0 
0 
0 
0 
0.02656909353290305 
0 
0 
0 
0 
0 
-0.0006196871137847676 
0 
0 
0 
0 
0 
0 
0 
0 
0.009061958129611792 
-0.001499524977596339 
0 
0 
0 
0 
-2.032879073410321e-20 
0 
0 
0 
0 
0 
0 
0 
0 
0 
0 
0 
0 
0 
0 
0 
0 
0 
0 
0 
0 
0 
0 
-0.0003631837034374908 
0 
0.05477901651110782 
0 
0 
-0.03262928587190636 
0 
0 
0 
0 
-0.02999095237487623 
0 
0 
0 
0 
0 
0 
0 
0 
0 
0.01496194202484849 
0 
0.003072735973198717 
0 
0 
-0.008783286318011861 
0 
0 
0 
0 
0 
0.0006203617616632416 
0 
0 
0 
0 
0 
0 
0 
0 
0 
0 
0 
0 
0 
0 
0 
0 
0 
0 
0 
0 
0 
0 
0 
0 
-0.0123966360449585 
0 
0 
0 
0 
0 
0 
0 
0 
0 
0.0002911584799535388 
0 
0 
0 
0 
0 
0 
0 
0 
0 
0 
0 
0 
0 
0.0006405769483449327 
0 
0 
0 
0.001434171889793414 
0 
0 
0 
0.01568597249839036 
0 
0.002243547713532785 
0 
0.003628156105064148 
-5.421010862427522e-20 
0 
0 
0 
0 
0 
0 
0 
0 
0 
0 
0 
0 
-0.05971444590425323 
0 
0 
0 
0 
0 
0 
0.0002820848922113885 
0 
0.03591490485294451 
0 
0 
0 
0.063387710920108 
0 
0 
0 
0 
0 
0 
0 
-0.001350111917602884 
0 
0 
0 
-0.06502237906838719 
0 
0 
0 
0 
0 
0 
0 
0 
0 
0 
0 
0 
0 
0 
0 
0 
0 
-0.04040306183390242 
0 
0 
0 
0 
0 
0 
0 
-2.032879073410321e-20 
0 
-0.0261248231737702 
0 
0 
-0.02294282089977146 
0 
0 
0.002733187908512437 
0.05963909775972967 
0.04064875623821198 
0 
0.0002911584799535388 
0 
0 
0 
0 
0 
0 
0 
0 
0 
0 
0 
0 
0 
0 
0 
0 
0 
0.008118173040011618 
0 
0 
0 
0 
0 
0 
0 
0 
0 
0 
0 
0 
0 
0.09456463536860898 
0 
0 
0 
0 
0 
-0.01456333531344486 
0 
0 
0 
0 
0.2206262020221748 
0 
0 
0 
0 
0 
0 
0.05506086686604392 
0 
-0.005673309703738755 
0 
0 
0 
0 
0.01581520045479923 
0 
0 
0 
0 
0 
0.4154661445208769 
0 
0 
-0.004295999293154873 
0.01702803074017266 
0 
0 
0 
0.001889035686991799 
-0.1008507413293667 
0 
0 
0 
0 
0 
-0.0065975591242485 
0 
0 
0 
0 
0.002044006146149611 
0 
0 
0 
0.02060624729306439 
0 
0 
0 
0 
0 
0 
-0.000403019882814177 
0 
0 
0 
-0.09108505741669122 
0 
0 
0 
0 
0 
0 
0 
0 
0 
0.02766504530995427 
0 
0 
0 
0.02608991393288945 
0.003664439058347619 
0 
-0.01125665593719175 
0 
6.776263578034403e-21 
0 
0 
0 
0 
0 
0 
0.0006203617616632416 
0 
0 
0 
0.0006405769483449327 
0 
0 
0.01603742235162037 
0 
0.0002911584799535388 
0 
0 
0 
0 
0 
0 
0 
0 
0.0006405769483449327 
0 
-2.032879073410321e-20 
0 
0 
0.008653183496976302 
0 
0 
0 
0 
0 
0 
0 
0 
0 
0 
0 
0.05079451996324554 
0 
0 
0 
0 
0 
0 
0 
0 
0 
-0.01014088643997825 
0 
-0.0275487221966282 
0 
0 
0 
0 
-0.03758730996340982 
0 
0 
0.0002911584799535388 
0 
0 
0 
0.1967054518352249 
0 
0 
0 
0 
0 
0 
0 
0.003628156105064148 
0 
0 
0 
0 
0 
0 
0 
0.03052594642943861 
0 
-0.0003320861120126108 
0 
0 
0 
0 
0 
0 
0.2146764253434279 
0 
0 
0 
0 
-0.1180747800272784 
0 
0 
0 
0 
0 
0 
0 
0 
0 
0 
0 
0 
0 
0 
0.06694304154716474 
0 
0 
0 
0 
0 
0 
0 
0 
0 
0 
0 
0 
0 
0.004901853045768606 
0 
0 
-0.313054650902667 
0 
0.02780737191025379 
0 
0 
0 
0 
0 
0 
0 
0 
0.02060624729306439 
0 
0 
0 
0 
0 
0 
0 
0 
0 
0 
0 
0.02078240358695568 
0 
-2.14055784306171e-05 
0 
0 
0 
0 
0 
0 
0 
0 
0 
0 
0 
0 
0 
0 
-0.01128283926438041 
0 
0 
0 
0 
0 
0 
0 
0.133850961251297 
0 
0 
0 
0 
-0.009933991683051558 
0 
0 
0 
0 
0 
0 
0 
0 
0 
0 
0 
0 
0 
0 
0 
0 
0 
0 
0 
0 
0 
0 
0 
0 
0 
0 
0 
0 
0 
0 
0 
0 
0 
0 
0 
0 
0 
0 
0 
0 
0 
-0.02261561586520749 
0 
0 
0 
0 
0 
0 
-0.01673121590366227 
0 
0 
0 
0 
0 
0 
0 
-0.001952960671056947 
0.02799229485494746 
0 
0 
0 
0 
0 
0 
0 
0 
0 
0 
0 
0 
0 
0 
0 
0 
0 
0 
0 
0 
0 
0.01043743380399343 
-0.1185545240093971 
0 
0 
0.1947966825950131 
0 
0 
0 
0 
0 
0 
-0.005749772421212929 
0 
0 
0 
-0.02405209539343299 
-0.01010060481436633 
0 
0 
0 
0 
0 
0 
0 
0 
0 
0 
0 
0 
-0.009545839823091267 
-0.07263209004575977 
0 
0 
0.00212932399569565 
0 
0 
0 
0 
0 
0 
0.02770401393956821 
0.02060624729306439 
0 
-0.0123966360449585 
0 
0 
0 
0 
0 
0.05463036680098882 
0.007641679571645428 
0 
0 
0 
0 
0 
0 
0 
0 
0 
0 
0 
0 
0 
0 
0 
0 
0 
0 
-0.01134821949381727 
-0.005046832547075406 
0 
0 
0 
3.469446951953614e-18 
0 
0 
0 
0 
0 
0 
0 
0 
0 
0 
0 
0 
0 
0.0002820848922113885 
-0.01141200194690006 
0 
0 
0 
0 
0 
0 
0 
-0.008146540626043759 
0 
0 
0 
-0.0123966360449585 
0 
0 
0 
0.01386190791191248 
0.03365079464210791 
0.03486529318539482 
0.0104354209310062 
-0.0592811944651851 
0 
0 
0 
0.0002911584799535388 
-0.004187537660890146 
0 
0 
0 
0 
0 
0 
0 
0 
-0.009072190350846582 
0 
0.06173051977291853 
0 
0 
0.008081384140329335 
0 
0 
0 
-4.336808689942018e-19 
0 
0 
0 
0 
0 
0 
0 
0 
-0.01696222702866989 
-0.1877790268563176 
2.168404344971009e-19 
0 
0.02161645147212339 
0 
0 
-0.1524842580706559 
0 
0 
0 
0 
0 
0 
0 
0 
0 
0 
0 
0 
0 
0 
0 
0 
0 
0 
0 
0.08131385266698545 
0.06415163663255372 
0.0006203617616632416 
0 
0 
0 
0 
-1.734723475976807e-18 
0 
0 
0 
0 
0.006097978614931289 
0 
0 
0 
0 
0.002782874847629748 
0 
0 
0 
0 
0 
0 
0 
0 
0.0006203617616632416 
0 
0 
0 
0 
0 
0 
0 
0 
0 
0 
0 
0 
0 
0 
0 
0 
0 
0 
0 
0 
0.02529769114928977 
0 
0 
-2.032879073410321e-20 
0 
0 
0.006652587212636771 
0.00212932399569565 
0 
0.0006405769483449327 
1.192622389734055e-18 
0 
0 
0 
0 
0 
0 
0 
0 
0 
0 
0 
0 
0 
0.009132016797477703 
0 
0 
-2.032879073410321e-20 
0 
0 
0 
0 
0 
0.3078915762296519 
0 
0.3734006125934903 
0 
0 
0 
0 
0 
0 
0 
0 
-0.007594668749149342 
0 
0 
0 
0 
0 
0 
0 
0 
0 
0 
0 
0 
0 
0 
0 
0.01965552754463805 
4.336808689942018e-19 
0 
0 
0 
0.003412219995257185 
0 
0 
0 
0 
-0.02500188592136201 
0 
0.008899343550235332 
0 
0 
0 
0 
0 
0 
0 
-0.351007924437542 
0 
0 
0 
0 
0 
-2.032879073410321e-20 
0 
0 
0 
0.0007417479619254517 
0 
0 
0 
0 
0 
0 
0 
0.2315076736398613 
0 
0 
0 
0 
0 
0 
0 
0 
0 
0 
0 
0 
0 
0.009645612133333573 
0 
0 
0 
-0.0004921674303660173 
-0.04198287958150423 
-0.06219315838657931 
0 
0 
0 
0 
0 
0 
0 
0 
0 
0 
0 
0 
0 
-0.1166965578541573 
-0.1524894137877288 
0 
0 
-0.002497088777604084 
0 
-0.01552141627659095 
0 
0 
0 
0 
0.0002911584799535388 
0 
0.1590116891517958 
-0.1649292060369621 
0 
0 
0 
0 
0.002243547713532786 
0 
0 
0 
0 
0.009384291942720807 
0.4085991600059149 
0.03147677573102497 
0 
0 
-0.245818703282994 
0 
0 
0 
0 
0 
0 
0 
0 
0 
0 
0 
0 
0 
0 
0 
0 
0 
0 
0 
0 
0 
0.009005311065564433 
0 
0 
0 
0 
0 
0 
0 
0 
0 
-0.04359042740093511 
0.0008071162689712247 
-0.008842791343607969 
0 
0 
0 
0 
-0.1616750895419247 
0 
0 
0 
0 
0 
-0.03084600160469515 
0.007957538774334673 
0.0093508625599278 
0.08427125992206259 
0 
0 
-0.002643045472692222 
-0.05194005191762185 
0 
0.009444026817052587 
0 
0 
0 
0 
0 
0 
0 
0 
0 
0 
0 
0 
0 
0 
0 
0 
0 
0 
-8.673617379884035e-19 
0 
0 
0 
-0.009864981435952942 
0 
0 
0 
0 
0 
0 
-0.01553735736469552 
0 
0 
0 
0 
0 
-0.0004921674303660173 
0 
0 
0 
0 
0 
0 
0 
0.0006405769483449327 
0 
-0.08805052528961943 
0 
0 
0 
0 
0.01971087382520237 
0 
0.01451509662521308 
0 
0 
0 
0 
0 
0 
-0.1307138454772355 
0 
0 
0 
0 
0 
0 
0 
-2.032879073410321e-20 
0 
0 
0 
0 
0 
0 
0 
0 
0 
0 
0 
0 
0 
0 
0 
0 
0 
0 
0 
0 
0 
0.02652359856869702 
-0.000403019882814177 
0 
0 
0 
-0.00827505090268027 
0 
0 
0 
0 
0.004941709794824215 
0 
0 
0 
-0.05088668108600976 
0.002780206064995777 
0 
0 
0 
3.165870343657673e-17 
0 
0 
0 
0 
0.03679751816877302 
-3.252606517456513e-19 
0 
0 
0 
0 
0 
0 
0 
0 
0 
0 
0 
0 
0 
4.336808689942018e-19 
0 
0 
0 
0 
0 
0 
0 
0 
0 
0 
-0.01972996287190588 
-0.01146865318651876 
0 
-0.05110269295376514 
0 
0 
0 
0 
0 
0 
0 
0 
0 
0 
0.03847472744768707 
0 
0 
-0.01568150492866471 
0 
-0.003529675682390121 
-0.1133243905306948 
-0.07394592667329121 
-0.0003631837034374908 
0 
0.02777750055319026 
-0.1069136302085613 
0.0006405769483449327 
0 
0.02950051352233 
0 
0 
0 
0 
0 
0 
0 
-1.734723475976807e-18 
0 
0 
0.5571867799019856 
0 
0 
0 
0 
0 
0 
0 
0 
0 
0 
0 
0 
0 
0 
0 
0 
0 
0 
0 
-2.032879073410321e-20 
0 
0 
0 
0 
0 
0 
0 
0 
0.01797357811613833 
-0.09441736460352412 
0 
-0.02158839082985845 
0 
0 
0 
0 
0 
0 
0 
0 
0 
0 
0 
0 
0 
0 
0 
0 
0 
0 
0 
0 
0 
0.01791683028245272 
0 
0 
0 
0 
0.0002911584799535388 
0 
0 
0 
0 
0 
0 
0 
0 
0 
0 
0 
0 
0 
0 
0 
0 
0 
0 
0 
0 
0 
0.02747023289040084 
0 
0 
0 
0 
0 
-0.002434784733812501 
0 
-0.05111608236986732 
0 
0 
0 
0 
0 
0 
0 
0.007559901690763569 
0 
0 
0 
-0.2529051242801135 
0.02060624729306439 
0 
0 
0 
0 
0 
0 
0 
0 
0 
0 
0 
0 
0 
0 
0 
0 
0 
-0.001476502291098052 
0.02389979076984198 
0.0117951300978982 
0 
0 
0 
0 
0 
0 
0 
0 
0 
0 
0 
0 
0 
0 
0 
-0.0123966360449585 
0 
0 
0 
0 
0 
0 
0 
0 
0 
0 
0 
0 
0 
0 
0 
0.00212932399569565 
0 
0 
0.006748406516629816 
0 
0 
0 
0 
0 
0 
0 
0 
0 
0 
0.01159336717956604 
0 
0 
0 
0 
0 
0 
-0.009564417021747871 
0.0006203617616632416 
0 
0 
0 
0 
0 
0 
0 
0 
0 
0 
0 
0 
-0.03617761598091764 
0 
0 
0 
0 
0 
0 
0 
0 
0 
0 
0 
-0.002433904524062171 
0 
0 
0 
0 
0 
0 
0 
0 
0 
6.776263578034403e-21 
0 
0.001049864820321811 
-2.032879073410321e-20 
0 
0 
0 
0 
0 
-0.3727551730982037 
0 
0 
0 
0 
0 
0 
0.0006107147599597662 
0 
0 
0 
0 
0 
0 
2.168404344971009e-19 
0 
0 
0 
-5.377787152403326e-05 
0 
0 
0 
0 
0 
0 
0 
0 
0 
0 
0 
0.0255300765001944 
0 
0 
0 
0 
0 
0 
0 
0.0002911584799535388 
0 
0 
0.01794556983953084 
0.05463036680098882 
0.01344945214855647 
0 
0 
0 
0 
0 
0 
0 
0 
0 
0 
0 
0 
0 
0 
0 
0 
0 
0 
-0.007213686660599319 
0 
0 
0 
-0.0123966360449585 
0 
0 
0 
0 
0 
-1.214306433183765e-17 
0 
0 
0.01449742761079741 
0 
-0.003250183125219732 
0 
0 
0 
0.1360747063483559 
0.02748729839092144 
0 
-0.0007432521010958419 
0 
0 
0 
0.3174813332932336 
0.0002911584799535388 
0 
0 
0 
0 
0 
0 
0 
-0.01854369353503579 
0 
0 
0 
0 
0 
0 
0 
0 
0 
0 
0 
0 
0 
0.02770401393956821 
0 
0 
0 
0 
0 
0 
0 
0 
0 
0 
0 
0 
0 
0 
1.694065894508601e-20 
0.05897033799106514 
-0.0665561324827226 
-0.02376356235988322 
0 
0 
0 
-0.153741073465707 
0 
0 
0.003798353994690451 
0.000181279036695736 
0 
0 
0 
0 
0 
0 
0.0006203617616632416 
-0.02380517638117833 
0 
0 
-0.07544452371971615 
0 
0 
0 
0 
0 
0 
0 
0 
0 
0 
0 
0.02770401393956821 
0 
0 
0 
0 
0 
0.002733187908512437 
0.0006405769483449327 
0 
0 
-0.01085055335077396 
0 
0 
0 
0 
0 
0 
0 
0 
0 
0 
0 
0 
0 
0 
0 
0 
0 
0 
2.168404344971009e-19 
0 
0 
0 
0 
0 
0 
-0.01249885849381088 
0 
0 
0 
0 
0 
0.03990283981862903 
0 
0 
0 
0.001819656976145687 
0 
0 
0 
0 
0 
0.01386648086803366 
0 
-0.1160775703216727 
0 
-0.0123966360449585 
0 
0 
0 
0 
0 
0 
0 
0 
0 
0 
0 
0 
0 
0 
0.001434171889793414 
0 
0 
0.3767109899071462 
0 
0 
0 
0 
0 
0 
0.006652587212636771 
0 
0 
0 
0 
0 
0 
0.0008071162689712247 
0 
0 
0.1104824097721758 
0 
0 
0.0898463094853344 
0 
0 
0 
0 
0.06711690809572213 
0 
0 
0 
0 
0 
0 
-0.05488757839509113 
7.806255641895632e-18 
0 
0 
0 
0 
0 
-0.007778443512228633 
0 
-0.001952960671056947 
0 
0 
0.07550820589868816 
0 
0 
0 
-0.006527318191865852 
0 
0 
0.008140391098409744 
0.01705167746503838 
0 
0 
0 
0.007271749896458161 
0 
0 
0 
0 
0 
0 
0 
0 
0 
0 
0 
0 
0 
-0.02216789799743035 
0 
0 
0 
-0.02657660935910448 
0 
0 
0 
0 
0.01168904284216656 
0 
-0.1068802780151595 
0.003127073886109943 
0.007353460651188248 
0 
0 
0 
-0.1162241567027274 
0 
0.01023648060271239 
0 
0 
0 
0.002560596036626999 
0 
0 
0 
0 
0 
0 
0 
0 
-0.001952960671056947 
0 
0.003412219995257185 
0 
0 
0 
0.003055807999847766 
0 
0 
0 
0 
0 
0 
0 
0 
0 
0.00212932399569565 
0.09892094977824865 
0 
0 
0 
0.0002820848922113885 
0 
0 
0 
0 
0 
0 
-0.07027849702832412 
0 
0 
0 
0 
0.002248735271852699 
0 
0 
0 
-8.673617379884035e-19 
0 
0 
0 
-0.1152151079375561 
0 
1.084202172485504e-19 
0 
0 
0.2777889445416965 
0 
0 
0 
0 
0 
0 
0 
0 
0 
0 
0 
0 
0 
0 
0 
0 
0 
0 
0 
0 
0 
0.009348428905022584 
0 
0 
0 
0 
0 
0 
0 
0 
0 
0 
0.0171841429508364 
0.009132016797477703 
0.05182890129681424 
0 
0 
0 
0 
0 
0 
0 
0 
0 
-2.032879073410321e-20 
0 
0 
0 
0 
0 
0.02109702256323 
0.01626311457000968 
0 
0 
0 
0 
0 
0 
0 
0 
0 
0 
0 
0 
0 
0.005590132524618347 
0 
0 
0 
0 
0 
0 
0 
0 
0 
0 
0 
0 
0 
0 
0 
0 
0 
0 
0 
0 
0 
0 
0 
0 
0 
0 
0 
0 
0 
0 
0 
0 
0 
0 
0 
0 
0 
0 
0 
0 
0 
0 
0 
0 
0 
0.003331575776498914 
0 
0.03600784640635196 
0 
0 
0 
0 
0 
0 
0 
0 
0 
0 
0 
0.006097978614931289 
0 
0 
0 
0 
0 
0 
0 
0 
0.0002911584799535388 
0 
0 
-0.0004921674303660173 
0 
0 
0 
0 
0 
0 
0 
0 
0.02845690868843558 
0 
0 
0 
0 
0 
0 
0 
0 
0 
0 
0 
0 
0.02911114005502287 
0 
0 
0 
0 
0 
0 
0 
0 
0 
0 
0 
0 
0 
-0.0123966360449585 
0 
0 
0 
0 
0 
-2.032879073410321e-20 
0 
0.001561906710674262 
0 
0 
0 
0 
0 
0 
0 
6.776263578034403e-21 
0 
0 
0 
0 
0 
0 
0.007226796262464964 
0 
0 
0 
0 
0 
-0.005311984100063621 
0 
0 
0.07591227041738326 
0 
0 
-4.553649124439119e-18 
-0.01808880799045882 
0 
0 
0 
0 
0 
0 
0 
0 
0 
0 
-0.000403019882814177 
0.0073853660126811 
0.0002820848922113885 
-0.000403019882814177 
0 
0 
0 
0 
0 
0 
0 
0.0008071162689712247 
0 
0 
0 
0 
0 
0 
0 
0.1145286077192373 
0 
0.009132016797477703 
0 
0 
0 
0 
0 
0 
-0.0009210308165141695 
0 
0 
0 
0 
0 
0 
0 
0 
0 
0 
0.1024630475201508 
0 
0 
0 
0 
0.01239039447505034 
0 
0 
0 
0 
-0.01707418520651871 
0 
0.09047640504625437 
0.02951288346623466 
0 
0.01463221679830224 
-0.009044403995229409 
0 
0.4882077151414433 
0 
0 
0 
0 
0 
0 
0 
0 
0.2216039828241097 
0 
0 
0 
0 
0 
0.0006405769483449327 
0 
8.673617379884035e-19 
0 
0 
0.01143351220620381 
0 
0 
0 
0 
0 
0 
0 
-0.3302296368383917 
0 
0 
0 
0 
0 
0 
0 
0 
0 
0 
0 
0 
0 
0 
0 
0 
0 
0 
0 
-0.004447239399954216 
0 
0 
-0.0275748746989859 
0 
0.0006203617616632416 
0 
0 
-0.01595834076949333 
0 
0 
0 
0 
0 
0 
0 
0 
-0.08697411574011145 
0 
0 
0 
0 
0 
0 
0 
0 
0 
0 
0 
0 
0 
-0.1559226574298387 
0 
0 
0 
0 
0 
0 
-3.144186300207963e-18 
0.0006203617616632416 
0 
0 
0 
0 
0 
0.008182247916477941 
0 
0 
-0.0123966360449585 
0 
0 
0 
0 
0.002093525050105665 
0.004941709794824215 
0 
0 
0 
-2.032879073410321e-20 
0 
0 
0 
-7.047314121155779e-19 
0.2103724126812681 
0 
0 
-2.032879073410321e-20 
0 
0 
0 
0 
0 
0 
0 
0 
0 
0.04204735149544594 
0 
0 
0 
-0.01520269535828053 
0 
0 
0 
0 
0 
0 
0 
0 
0 
0 
0 
-0.3416280602375697 
0 
0 
0 
0 
0 
0 
0 
0 
0 
0 
0 
0 
0 
0 
0 
0 
0 
-1.534146074066989e-17 
0 
0 
0 
0 
0 
0 
0 
0 
0 
0 
0 
0 
0 
0 
0 
0 
0 
0 
0 
0 
0 
0 
0 
0 
0.04229820114302021 
0 
0 
0 
0 
0 
0 
0 
0 
0 
-0.0123966360449585 
0 
0 
0.0008071162689712247 
0 
0.05145456077773601 
0 
0 
0 
0 
0 
0 
-0.0123966360449585 
0 
0 
0.02101682932060858 
0 
0 
0 
0 
0 
0 
0 
0.00207750465752648 
0.03451259243620399 
0.001434171889793414 
0.08909389198874358 
0.04557034997315955 
0 
0 
0 
0 
0 
0 
0 
0 
0 
0 
0.02747023289040084 
0 
0 
0 
0 
0 
0 
0 
-0.08971118018172583 
0 
0 
0 
0 
0 
0 
0 
0 
0 
0 
0 
0.0002911584799535388 
0 
0 
0 
0 
0 
0 
0 
0 
0 
0 
0 
0 
0 
2.168404344971009e-19 
-0.005038639313227578 
0 
0 
0 
-0.01854369353503579 
0 
0.09336772280922964 
0 
0 
0.0006405769483449327 
0 
0 
0 
0 
0 
0 
0 
-0.003286050485404814 
0 
0 
-0.0123966360449585 
4.336808689942018e-19 
0 
0 
0 
0 
0 
0 
0 
0 
0 
0 
0.003072735973198717 
0 
0 
0.01385407954174253 
0 
0.006461180085066813 
0 
0 
0 
0 
-0.07722306426313386 
0.005217710465503101 
0 
0 
0 
0 
0 
0 
0 
0 
0 
0 
0 
0 
0 
0 
0 
0.02493326102073607 
0 
0 
0 
0 
0.04916428175233117 
0 
0 
0 
0 
0.006097978614931289 
0 
0 
0 
0 
0 
0 
0.04145542295741381 
0 
0 
0 
0 
0.1401791802491903 
0 
-0.06442640565218188 
0.02388463292205497 
0.03699941836662107 
0 
-0.00939620155975473 
0 
0 
0 
0 
0 
0 
-0.002412926681940111 
0 
0 
0 
0 
0 
0 
0.03423528973304046 
0 
0 
0 
0 
-0.02608444192873847 
0 
0 
0 
0 
0 
0 
-0.0858051313270652 
0.03066964382872369 
0.0006405769483449327 
0 
-6.776263578034403e-21 
0 
0 
0 
0 
0 
0 
0 
0 
0 
0.05110819455717547 
0 
0 
0 
0 
0 
0 
0 
0 
0 
-0.04730791196175282 
4.26633554873046e-17 
0 
0 
-0.01164423076399785 
0 
0 
0 
0.01423996337601216 
0 
-0.005658279370316841 
0 
0 
0 
0 
0 
0 
0 
0 
0 
0.0008071162689712247 
-0.02868457997501404 
0 
-0.0123966360449585 
0 
0 
0 
0 
0 
0.01688521233395153 
0.0104354209310062 
0 
0 
0.006652587212636771 
0 
0 
0 
-0.03721248499660165 
0.002733187908512437 
0 
-0.0007483416579759208 
0 
-0.4099858142977898 
0.002546007023932187 
0.0938652997676838 
0 
0 
0.0288789981309438 
0 
0 
0 
0 
0 
0 
0 
0 
-0.05278688519986052 
-0.00134374903326696 
-6.776263578034403e-21 
0 
0 
0 
0 
0 
-2.032879073410321e-20 
0 
-0.003066749963439598 
0 
0 
0 
0 
0 
0 
0.01496194202484849 
0 
0 
0 
0 
0.02172330589690974 
0 
0 
0 
0 
0 
0 
0 
0 
0 
0 
0 
0 
0 
0 
0 
0 
0 
0 
0 
0.005832543873542257 
0 
0.04500241185300874 
0 
-0.01179768967920234 
0 
0 
0 
0 
0.0002911584799535388 
0 
0.01373385307594032 
0 
0.003332410817357095 
0 
0 
0 
0 
0.1177369766030138 
0 
0 
0 
0 
0.0002911584799535388 
0 
0 
0 
0 
0 
0 
0.02089408546588875 
0 
0 
-0.0006588782124108776 
0 
0 
0 
0 
0 
0.1281643115208034 
0 
0 
0 
0.002964328450408026 
0 
0 
0 
0 
0 
0 
0 
0 
0 
0 
-0.000492167430366017 
-0.002433904524062171 
0 
0 
0 
0 
0 
0 
0.03344394522884758 
0 
0 
0 
0 
0 
0 
0 
0 
0 
0 
0 
0 
0.007389926084221068 
-0.0123966360449585 
-0.04092126905973425 
0 
8.673617379884035e-19 
0 
0.5992079749776985 
-0.008722126355017892 
0 
0 
0 
0.003412219995257185 
0 
0 
0 
0 
0 
0 
0 
0 
0 
0 
0.0073853660126811 
0 
0 
0.006097978614931289 
0.09025402902115238 
0 
0 
0 
0 
0 
0 
0.0110894148447972 
0 
0 
-0.1282236148788974 
0 
0.006143589778801097 
0 
0 
0 
0 
0 
0 
-0.0007432521010958419 
0 
0 
0 
0 
-0.0123966360449585 
0 
0 
0 
0 
0 
0 
0 
0 
0 
0.03681621500043104 
0.0104354209310062 
0 
0 
-0.1771881539530522 
0 
0 
0 
0.002248735271852699 
0 
0.0008071162689712247 
0 
0 
0 
0 
0 
0.1101116354416998 
0 
0 
0 
0.00212932399569565 
0.1475272169361501 
0 
0 
0.02406590246014004 
0 
0 
0 
0.0171841429508364 
0.1874724069446056 
0 
-0.01581490308595305 
0 
0 
0 
-0.007281667656722428 
0 
0 
0 
0 
0 
0 
0 
0 
0 
0 
0 
0 
-0.0006060559013400392 
0 
0 
0 
0 
0 
0 
-0.0123966360449585 
0 
0 
0 
0 
0 
0 
0 
0 
0 
0 
0 
0 
0 
0 
0 
0 
0 
0 
0 
0 
0 
0 
0 
0 
0 
0 
0 
0 
0 
0 
0.008118173040011618 
0 
0 
0.006815108352730102 
0 
0 
0 
0 
0 
0 
0 
-0.0002151114860961316 
0 
0 
0 
-0.004295999293154873 
0 
0 
0 
0 
0 
0 
0 
0 
0 
0 
0 
0.009300674077608019 
0 
0 
0 
0 
0 
0 
0 
0 
0.0288789981309438 
2.710505431213761e-20 
0 
0 
-0.1788542711093491 
0 
0 
0 
0 
0 
0 
0 
-0.0007541608956459186 
0 
0 
-0.01912968474864829 
0 
0 
0 
0 
0 
0 
0 
0 
0 
0 
0.02274825805280154 
0 
0 
0 
0 
0 
0 
0 
0 
0 
0 
0 
0 
0 
-0.0199817694058498 
0 
0 
0.02452273235937393 
0 
0 
0 
0 
0 
0 
0 
-0.01010060481436633 
0 
0 
0.0172385250105314 
0 
0 
0 
-0.09105600038150238 
0 
0 
0 
0 
0.03689163840518268 
0.01502288191809602 
0 
0 
0 
0 
0 
0.0002911584799535388 
0 
0 
0 
0 
0 
0 
0.004846965990167135 
0 
0 
0 
-0.01007756264937724 
0 
0 
0 
0 
0 
0 
0 
0 
0 
0 
0 
0 
0 
0 
0 
0 
0 
0.182992224147854 
0 
0 
0 
0 
0 
0 
0.006097978614931289 
0 
2.168404344971009e-19 
0 
0.2408806029581299 
0.03584842198699042 
0 
0 
0 
-0.1308125531840591 
0 
0 
0 
-0.1371287814519553 
0.003055807999847766 
0 
0 
0.1790446986478055 
0 
0 
0 
0 
0 
0 
0.01056188379280011 
0 
0 
0 
0 
0 
0 
0 
0 
0 
0 
0 
0 
0 
0 
0 
-0.01696222702866989 
0 
0 
0 
0 
0 
0 
0 
0.0006203617616632416 
0.1285069386534612 
0 
0 
0 
0 
0 
0.04201106236039785 
0 
0 
0 
0 
0 
0 
0 
0 
0 
0 
0 
0 
0 
0 
0 
-2.032879073410321e-20 
0.04018453694371212 
-0.07444914846224253 
0 
0.0073853660126811 
0 
0 
0 
0 
0 
0 
0 
0.06331829158558799 
0 
0 
0 
-4.336808689942018e-19 
0.08153377295621353 
0 
0 
0 
0 
0 
0 
0 
0 
0 
0.002636382328577477 
0 
0 
-0.0521192084005548 
0 
0 
0 
-0.01136780624606277 
0 
0 
0 
-0.1488794840615665 
0 
0 
0 
-0.231346648597256 
0 
0.2591784419169611 
0 
0 
-1.734723475976807e-18 
0 
0 
0.06742199075581179 
0 
0 
0 
0 
0 
0 
0 
0 
0 
0 
-0.02231582473168568 
-0.001245207041278265 
0 
0 
0 
0 
0 
0 
0 
0 
0 
0 
-0.002198188760499621 
0 
0 
0 
0 
0 
0 
0 
-0.00249977169876218 
0 
0 
0 
0 
0 
0 
0 
0 
0 
-0.002126495930174168 
0 
0.04137498066031496 
0 
-2.032879073410321e-20 
0 
-0.04047313193464475 
0 
0 
0 
0 
0 
-0.0003631837034374908 
-0.03755715659927449 
0 
0 
0 
0 
0 
0 
0 
-0.004908365065556588 
0 
-0.000403019882814177 
0 
0 
0 
0 
0 
0 
-0.0001434850458612467 
0 
0 
0 
0 
0 
0 
0 
0.004941709794824215 
0 
0 
0 
0 
0 
0 
0 
0 
0 
0 
0.02109545137473298 
0 
-0.1448167091967477 
0 
0 
0 
0 
0 
0 
0 
0 
0.001316786105815533 
0 
0 
-0.0496160539654095 
0 
0 
0.009326832558520366 
0 
0.0002820848922113885 
0 
0 
-0.02097502854213558 
0 
0 
0 
0 
0 
0 
0 
0 
0 
0 
0.1541615523776909 
0.2844366997305033 
0 
0 
0 
0 
0 
0 
-2.120970499924768e-18 
0 
0 
0.0006405769483449327 
0 
-0.0004921674303660173 
0 
0.0006405769483449327 
0 
0 
0 
0 
0 
0 
0 
0 
0.0008071162689712247 
0 
-2.032879073410321e-20 
-0.06870941185987071 
0 
-2.032879073410321e-20 
0 
0 
0 
0 
0 
0 
0 
0 
0 
0 
0 
0 
0 
0 
-6.938893903907228e-18 
-0.02720113573141332 
0 
0 
0 
0 
0.02172330589690974 
0.003628156105064148 
0 
0 
0 
0 
0 
0 
0 
0 
0.1831395770760637 
0 
0 
0 
0.01398753727063699 
0 
0 
0 
-0.2637435845237747 
6.776263578034403e-21 
0 
0 
0 
0 
-0.1876818400138327 
-0.003606843330299659 
0 
0 
0 
0 
0.001049864820321811 
0 
0 
0 
0 
0 
0 
0 
0 
0 
0 
-0.00358633421769318 
0 
0 
0 
0 
0 
-0.141513640809659 
0 
-0.005038639313227578 
0 
0 
0 
0 
0 
0 
0 
0 
0 
0 
0 
0 
0 
0 
0 
0 
0 
-0.006134892943879 
0 
0 
0 
0.01242210815979542 
0 
0 
0 
0 
-1.151964808265848e-19 
-0.00939620155975473 
0 
0 
0 
0 
0.140396437964708 
0 
-0.03391137371336031 
0 
-0.0123966360449585 
0 
0 
0 
0 
0 
0 
0 
0 
0 
0 
-0.02646743314298956 
0 
0.002044006146149611 
0 
0 
0 
0 
0 
0 
0 
0 
0 
0 
0 
0 
0 
-0.0004921674303660173 
-0.06655001157843921 
0 
0 
0 
-2.032879073410321e-20 
0 
0 
0 
0 
0 
0 
0 
-0.04482451152888879 
0 
0 
0 
0 
-0.002424223605360157 
-0.02097502854213558 
0 
0 
0 
0 
0 
0 
0 
0 
0 
0.0006405769483449327 
0 
0 
0 
0 
0 
0 
0 
0 
0 
0 
0 
-0.01790718395592914 
0 
0 
0 
0.0221141318900575 
0 
0 
0 
0 
0 
0.02796477181903098 
0 
0.01178084836993446 
0 
0 
0 
0 
0.01256221372746433 
0 
0.1152260725311386 
0 
0 
-0.0275487221966282 
0 
0.003072735973198717 
0 
0 
0 
0 
0 
0 
-1.084202172485504e-19 
0 
0 
-0.03889573713664009 
0.003184764712061373 
0 
0 
0 
0.01472901134192424 
0 
0 
0 
0 
-0.02500188592136201 
0 
0 
0 
0 
0 
0 
0 
0 
0 
0 
0 
0 
-0.0003631837034374908 
0.01524331241433921 
0 
0.02799229485494746 
0 
0 
0 
0 
0 
0 
0 
0 
0 
0 
0 
0 
0 
0 
0 
0 
0 
0 
0 
0 
0.0002820848922113885 
0 
0 
0 
0 
0 
0 
0 
0 
0 
0 
0 
0 
0 
0 
0 
0 
0 
0 
0.125955212675317 
0 
0 
0 
0.3587760250688561 
0 
0 
0 
0 
0 
-0.02201776451809524 
0 
0 
0 
0 
0 
0 
0 
0 
0 
0 
-0.04458807926948451 
0 
0 
0 
0 
0 
-4.336808689942018e-19 
0 
0 
0 
0.0002820848922113885 
0 
-0.06594226686120834 
0.06519236086796278 
0 
0 
0 
0 
0 
0 
0 
0.009764324578758357 
0 
-0.04040306183390242 
0 
0 
0 
0.06001017085621897 
0 
0 
0 
-0.04118558680773662 
0 
0 
0 
0 
0 
0 
0 
0 
0 
0 
0 
0 
0.01101729915384446 
0 
0 
0 
-0.001952960671056947 
0.5561961394258977 
0 
0 
0 
0 
0.001882527326767982 
0.0006405769483449327 
0 
0 
0 
0 
-0.01707418520651871 
0 
0 
0 
0 
0.38913165408965 
0 
0.007389926084221068 
-0.007084641475082257 
0.003332410817357095 
0 
0.02845690868843558 
0 
0.01502288191809602 
0 
0 
0 
0.0008071162689712247 
0 
0.07204754390360164 
2.087089182034596e-18 
0 
0 
0 
0 
0 
0 
0 
0.072911411661454 
0.03238882898852622 
0 
0 
0 
0.02783675080578137 
0 
0.008915955223293564 
0 
0 
0 
0.1335371900317027 
0 
0 
0.003055807999847766 
0 
-0.005936211290748665 
0 
-0.0123966360449585 
0 
0 
0 
0.003628156105064148 
0 
0.003412219995257185 
0 
0 
0 
0 
0 
0 
0 
-0.0067463113535614 
0 
-0.09163123513191551 
0.0003107768580395517 
0 
0 
0 
0 
0 
0 
0 
0 
0 
0 
0 
0 
0 
0 
-0.04445868729821657 
0 
0 
0 
0 
0 
0.001434171889793414 
0 
0.02796477181903098 
0 
0 
0 
-0.0123966360449585 
0 
0 
0 
0 
0 
-0.09669842181393233 
0.008478267824157138 
0 
-0.0004921674303660173 
-2.032879073410321e-20 
0 
0 
0 
-0.02282400389380012 
0 
0 
0.002733187908512437 
0.02932934926201216 
1.582935171828836e-17 
0 
0 
0 
0.0008071162689712247 
0.02770401393956821 
0 
0 
0 
-0.0204174271047079 
0 
0 
0 
0 
0 
0 
0 
0 
0 
0 
0 
0 
0 
0 
-0.1257600084809664 
0 
0 
0.01001230039562394 
0 
0 
0 
0 
0 
0 
0 
0.1833125883922405 
0 
0 
-0.01578964787106725 
0 
0.03523250629422944 
0 
0 
0 
-2.032879073410321e-20 
0 
0 
0 
-0.008554828420901725 
0 
0 
0 
0 
0.002243547713532785 
0 
0 
0 
0 
0 
0 
0 
0 
0 
-0.29349388686376 
0 
0.02354713615890976 
0 
0 
0 
0 
0.03469836828434693 
0 
-7.37257477290143e-18 
0.0006203617616632416 
0 
0 
0 
0 
0 
0.0006405769483449327 
0 
0 
0 
0 
0 
0 
0 
0 
0 
0 
0.01675509195692192 
0 
0.008118173040011618 
0 
0 
0 
0 
0.013429134529306 
0.0008071162689712247 
0 
0 
0 
0 
0 
0 
0 
0 
0 
0 
-0.0001075557430480665 
0 
0 
0.0113413652946622 
0 
0 
0 
0 
0 
0 
0 
0 
0 
0 
0 
0 
0 
0 
0.0006203617616632416 
0 
0.0006203617616632416 
0.01745843804335949 
0 
0.0154083542878439 
0 
0 
0 
-0.007499315096286538 
0 
0 
0 
0.08885907470276651 
0 
0 
0 
0 
0.009405219546177922 
0 
0 
0 
0 
0.002243547713532785 
0 
0.1869780952656488 
0 
0 
0 
0 
0 
-3.979358850448201e-05 
0 
0 
0 
0 
0 
0 
0 
0 
-6.911788849595091e-19 
0 
0 
0 
0 
0 
0 
0 
0 
0 
0 
0 
0.009645612133333573 
0 
0 
0 
0 
0 
4.336808689942018e-19 
-0.002720641748584963 
0 
0 
0 
0 
0 
0 
0 
0 
0 
0.02950051352233 
0 
0 
0 
-4.336808689942018e-19 
0 
0 
0 
0 
0 
0 
0 
0 
-0.04093368271497749 
0 
0 
0 
0 
0 
0 
0 
0 
-0.05899267416478005 
0.0171841429508364 
0 
0 
0 
0.002964328450408026 
0 
0 
0 
0 
0 
0 
0 
0 
0 
0 
0 
0 
0 
0 
0 
0 
0 
0 
0 
0 
0 
0.06451612903225806 
0 
0 
0 
0 
0 
0 
0 
0 
0 
0 
0 
0 
0 
0 
0 
0 
0 
0 
0 
0 
0 
0 
0 
0 
0 
-0.02273561249212554 
0 
0 
0 
0 
0 
0 
0 
0 
0 
0 
0 
0 
0 
0 
0 
0 
0 
0 
0 
0.09728528310963203 
0 
0 
0 
0 
0 
0 
0 
0 
0 
0 
0 
0 
0 
0 
0 
0.01736533474874115 
0 
-2.032879073410321e-20 
0 
0 
0 
0 
0 
0.0009998259407229552 
0 
0 
0 
9.351243737687476e-18 
0 
0 
0 
-0.07017091057685658 
0 
0 
0 
0 
0 
-0.01366960506692916 
0 
0 
0 
0 
0 
0 
0 
0 
0 
0 
0 
0 
0 
0 
0 
0 
0 
0 
0.0006203617616632416 
0 
0 
-0.0065975591242485 
0.04154346436016257 
0 
0 
0 
0 
0 
0 
0.007944152524343547 
0 
0 
0 
0 
0 
0 
0.05738177185190304 
0 
0 
0.002481447046652967 
0 
0 
-0.06253345713196562 
0 
0.2676224903973503 
0 
0 
0.006600470395106445 
0 
0 
0 
0 
0 
0 
0 
0 
0 
0 
0 
0 
0 
0 
0 
0 
0 
0 
0 
0 
0 
0 
0.0748317039504201 
-0.0123966360449585 
0 
0 
0 
0 
0 
0 
0 
0 
0 
0 
-0.03202632769424214 
0 
0 
0 
0 
0 
0 
0 
0 
0.06105896677642932 
0 
0 
0.003127073886109943 
0 
0 
0.0002911584799535388 
0 
0 
0 
0.0008071162689712247 
0.04611752901447094 
0 
0.03523250629422944 
0 
0.001503866007371199 
0 
0 
0 
0 
0 
0.02689827156867606 
0 
0 
0.006097978614931289 
0 
-0.00249977169876218 
0 
0 
0 
0 
0.0794966153996675 
0 
0 
0.02163323656245409 
0 
0 
0 
0 
0 
0 
0.04386901592130955 
0.005905082390351341 
0.01939587977681466 
0 
0 
0 
0 
0 
0 
0 
0 
0 
0 
0 
0.0006203617616632416 
0.002733187908512437 
0 
0 
0.03762388138621438 
0 
0 
0 
0 
0 
0 
0 
0.01512855669788292 
0 
-0.009478338637734148 
0 
0.0006405769483449327 
0.0006107147599597662 
0 
0 
0 
-0.0123966360449585 
0 
0 
0 
0 
0 
6.505213034913027e-19 
0 
-0.1487465792696997 
-0.0123966360449585 
-0.004459512606575042 
0 
0.01364364201483519 
0 
0 
0 
0 
0 
0 
-0.08634894765351515 
0 
0 
0 
0 
0 
0 
0 
0 
-0.005219430931819617 
0 
0 
0.0002911584799535388 
0 
5.421010862427522e-20 
0 
0.003115738744527671 
0 
0 
0 
0 
0 
0.0002911584799535388 
0 
0 
0 
-0.03587372291343467 
0 
0 
-2.120970499924768e-18 
0.07023358778414845 
0 
0 
0 
0 
0 
0.0008071162689712247 
6.776263578034403e-21 
-0.000403019882814177 
0 
0 
0 
-0.00572363234478074 
0 
0 
0 
0 
0 
0 
0.02310937255926979 
0 
0 
0 
-4.281856771607921e-05 
0 
0 
0 
0 
0 
0.007559901690763569 
0 
0 
0.01502459338194423 
0 
0 
0 
0 
0 
0 
0 
0 
0 
0 
0 
0 
0 
-2.032879073410321e-20 
0 
0.1696298273841404 
0 
-0.0004147638695339196 
0 
-0.0123966360449585 
0 
-0.06506589274320022 
0 
0 
0 
0 
0 
0 
0 
0 
0 
0 
0 
0 
0 
0.06162198870399298 
0 
0 
0 
0 
0 
0.009315754552618712 
0 
0 
0 
0 
0 
0 
0 
0 
0 
0.0172385250105314 
0.01101729915384446 
0.06165258920765022 
0 
0.1843981616644902 
0 
0 
0 
-0.0004921674303660176 
0 
0 
0 
0 
0 
0.009514730872592657 
0 
-2.032879073410321e-20 
0 
0 
0 
-0.02254194272906289 
0 
-0.028855680849109 
0.1462702457883304 
0 
0 
0 
0 
0 
-0.4441989494495589 
0 
0 
0 
0 
-0.2237947269958371 
0.0002820848922113885 
0 
-4.336808689942018e-19 
-0.000403019882814177 
-0.2695532632462534 
-0.0008302152800315197 
0 
0 
0 
0 
0 
0 
0.1128162006686864 
0 
0 
0 
0 
0 
0 
-0.0123966360449585 
0 
0 
2.168404344971009e-19 
0.007559901690763569 
0 
0 
0 
0 
0 
-0.04114122925926187 
0 
0 
0 
0 
0 
0 
0 
0.0006405769483449327 
0.01463221679830224 
0 
0 
0 
0 
0 
0 
0 
0 
0 
0 
0 
0 
0.0006405769483449327 
0 
0 
0 
0 
0 
0 
0 
0 
0 
0 
0 
0.02391238641886835 
0 
0 
0 
-0.008079703766384118 
-0.5485508029984273 
-0.09107346671228479 
0.06213693463243893 
0 
0 
0 
0 
0 
0 
0 
0 
0 
0 
0 
0 
0 
0 
0 
0 
0.04992499665164114 
0 
0.02950051352233 
0 
0 
0 
0 
0 
0.02392051064157426 
0 
0 
0 
0 
0 
0.0008071162689712247 
0 
0 
0 
0 
-0.1880039113801788 
0.04616372988729495 
0 
0 
-0.0004921674303660173 
0 
0 
0 
0 
0 
0 
0 
0 
0 
0 
0 
0 
-0.01696222702866989 
0 
0.02089408546588875 
0 
-0.001798749224067129 
0 
0 
0 
0 
0 
0 
0 
0 
0 
0 
0 
0 
0 
-5.377787152403326e-05 
-0.004921674303660187 
0 
0 
0 
0 
0 
0.0008071162689712247 
0 
0 
0 
0 
0 
0 
0 
0 
0 
0 
0 
0 
0 
0 
0 
0 
0 
0 
0 
0 
0 
0.03451259243620399 
-0.0123966360449585 
0 
0 
0 
0 
0.01160113273764783 
0 
-0.02991859640541864 
0 
0 
0.004791702575925268 
0 
0 
0 
0 
0 
0 
0 
0 
0.002733187908512437 
0 
0.03328819839758724 
0 
0 
0 
0 
0 
0.01040144987095347 
0.0002820848922113885 
0 
0 
0 
0 
0 
-4.065758146820642e-20 
0 
0 
0 
0 
1.694065894508601e-20 
0 
0 
1.734723475976807e-18 
0 
0 
0 
0.05312292497673657 
0 
0 
0 
0 
0.0006203617616632416 
0.004009503390308674 
0 
0.1419067578622026 
0 
0 
0 
0 
0 
0 
0.01001400664437252 
0 
0.0005823169599070777 
0 
0.003072735973198717 
0 
0 
0 
0 
0 
0 
0 
0 
0 
0 
0.2172343815133701 
0 
0 
0 
-0.00731975138104258 
0 
0 
0 
0 
0 
-0.3278342935078883 
0 
-0.005046832547075406 
0 
0 
0 
0 
0 
0 
0 
-0.00249977169876218 
0 
0 
0.009326832558520366 
-0.01326731400004666 
0 
0 
0.004497470543705397 
0.04566131270473697 
0.02192488559766794 
0 
0 
0 
0 
0 
0 
0 
0 
0 
0 
0 
0 
0 
0 
0 
0 
0 
0 
0 
0 
-2.032879073410321e-20 
0 
0 
0 
0 
0 
0 
0 
0 
0 
0 
0 
0 
0 
0 
0 
0 
0 
0 
0 
0.1383284192205208 
0 
0 
0 
0 
0 
0 
0 
0 
0 
0 
0 
0 
0 
0.02274825805280154 
0 
0.008635978217396799 
0 
-0.007281667656722428 
-0.01180507691411715 
-0.02430323943606564 
0 
0 
0 
0 
0.167855096578412 
0 
0.01794556983953084 
0 
0.004941709794824215 
0.0006203617616632416 
0 
-0.007551414594823043 
0.06971407382629195 
0 
0 
0 
6.776263578034403e-21 
0 
0 
0 
0 
-0.004781550370758898 
0 
0 
0 
0 
0 
0 
0 
0 
0 
0 
0 
0 
0 
0 
0 
0 
0 
0 
0 
0 
0 
0 
0 
0 
0 
0 
0 
0 
0 
-0.07978381841408336 
0 
0 
0 
0 
0 
0 
0 
-0.04563248647288163 
0 
0 
0 
0.1540869278537125 
0 
0 
0 
0 
0 
0 
0.0006405769483449327 
0 
0 
-7.047314121155779e-19 
0 
0 
0.003607906174893687 
-0.001326653452475096 
0 
0 
0 
0 
0 
0 
0 
0 
0 
0.02161645147212339 
0 
0 
0.06429873321638616 
0.02248729596386313 
0 
0 
0 
0 
0 
0 
0 
0 
0 
0 
0 
0 
0 
0 
0 
0 
0 
0 
0 
0 
0 
0 
0 
0 
0 
0.00074174796192545 
0 
0.008833576937877638 
0 
0 
0 
-2.032879073410321e-20 
0 
-0.1381030138378209 
0 
0 
0 
0 
0 
0 
0 
0 
0 
0.0222141053885886 
0 
0 
0 
0 
0 
0 
0.002044006146149611 
0 
0 
2.781282043516104e-05 
0 
0 
0 
0 
0 
0 
-1.084202172485504e-19 
0 
0 
0 
0 
0 
0 
0 
0 
0 
0 
0 
0 
0 
-0.05493212186591831 
0 
0 
0 
0 
0.07023358778414845 
0.00148247080188236 
-0.005606287375351693 
0 
0 
0 
0 
0.6436144359630271 
0 
0 
0 
0 
0 
0 
0 
0 
0 
0 
0 
0.0002911584799535388 
0 
-0.1288941231602019 
-0.007339254839365083 
0 
0 
-2.032879073410321e-20 
0 
0 
0 
0 
0 
0 
-0.01836915579787139 
0 
0 
0 
0 
0.002247781401749092 
0 
0 
0 
0 
0 
0 
0 
0 
0 
0 
0 
0.1145656752771235 
0.02063713905397187 
0 
0 
0 
0 
0 
0 
0 
0 
0 
0 
0 
0 
0 
0 
0 
0 
0 
0 
0.02796477181903098 
-0.0325251672832343 
0 
-0.05947101105337554 
0 
0 
0 
0.0002820848922113885 
0 
0 
0 
0 
0 
0 
0 
0 
0 
0 
0 
0 
0 
0 
0 
0 
0 
0 
0 
0 
0 
0 
-2.032879073410321e-20 
0 
0 
0 
0 
0 
0 
-0.001174568525000975 
0 
0 
0.000370873980962725 
0 
0 
0 
0 
0 
0 
0 
0 
0 
0 
0 
0.001939249980360604 
0.01178084836993446 
0 
-0.06009290202963498 
0 
0 
0 
0 
-0.04328211996359603 
0 
0 
0 
0 
0 
0 
0 
-3.979358850448201e-05 
0 
0 
0 
0 
0.002248735271852699 
0 
0 
0 
0 
0 
0 
0 
0 
0 
0.06275657006895663 
0 
0 
0.008899343550235332 
0 
0 
0 
0 
0.003699873389317657 
0 
0 
0 
0 
0 
0 
0 
0 
0 
0 
-0.006278168398887033 
0 
0 
0 
0 
0 
0.0222141053885886 
0 
0 
0 
0 
0 
0 
0 
0 
0 
9.063951834787192e-05 
0 
0 
0 
0 
0 
0 
0 
0 
0 
0 
0 
0 
0 
0 
0.06137008669907987 
0 
0 
-0.0275487221966282 
0 
0 
0.03497495933065246 
0 
0 
0 
0 
0 
0 
0.02060624729306439 
0 
0 
0 
0.01386190791191248 
0 
0 
0 
0 
0 
-0.02091116463853598 
0 
0 
0 
0 
0 
0 
0.0193461989775015 
0 
0 
0 
0 
0 
0 
0 
0 
0 
0 
0 
0 
0 
0 
0 
0 
0 
0 
0 
0 
0.553319129917632 
0 
0 
0 
0 
0.006579275440470819 
0 
0 
0 
-0.00803132325568643 
0.1932692882699786 
0.002733187908512437 
0 
0 
0 
0 
0 
0 
0 
-0.02078061730007491 
0.2573423874166851 
0 
0 
0 
0 
0 
0 
0 
0 
-0.0004921674303660174 
0 
0 
0 
0 
-0.08180739478302457 
0 
0 
0 
0 
0 
0 
0 
0 
0 
0 
0.006923674876259951 
-0.0067463113535614 
0 
0 
0 
0 
0 
0.2592027037931578 
0 
0.007957318913368934 
0 
0 
0 
0 
0 
0 
0 
0 
0 
-0.005046832547075406 
0 
0 
0 
0 
0 
0 
0 
0 
0 
0 
0 
0.03423528973304046 
0 
0.002248735271852699 
0.02436240179010021 
0 
0 
0 
0 
0 
0 
0 
-2.032879073410321e-20 
0 
0 
0 
0 
0.006462277840488475 
0 
0 
-0.005317766141793041 
0 
0 
0 
0 
0 
0.006097978614931289 
0 
0 
0.02253697588280724 
-8.673617379884035e-19 
0 
0 
0 
0 
-0.00249977169876218 
0 
0 
0 
0 
0 
-0.0189041397752029 
0 
0 
0 
0 
0 
0 
0 
0 
0 
0 
0 
0.0172385250105314 
0 
0 
0 
0 
-4.065758146820642e-20 
0 
0 
0 
0 
0 
0.3673343843316732 
0 
0 
0 
0 
0 
0 
-0.007068785072281075 
0 
0 
0 
0.1429873017381459 
0.0110894148447972 
0 
0 
0 
0.02510103320094732 
0 
0 
0 
0.001434171889793414 
0 
0 
0 
0 
0 
0.7715240927226267 
0 
0 
-0.01326731374764547 
0 
0 
0.1391093593019552 
0 
0 
0.0113413652946622 
0 
0 
0 
0 
0 
0 
0 
0 
0 
0 
0.0006405769483449327 
0 
0 
0 
0 
-0.01068182959815902 
0 
0 
0 
-0.02309443551937933 
0 
0 
0 
0 
0 
0 
0 
0 
-0.09738769146555432 
0 
0.02282530171858082 
0 
-0.04002515459958787 
0 
0 
-0.2819401734054181 
0 
0 
0 
0 
0 
0.002850692135510618 
0 
0 
0 
0 
0 
0 
0 
0 
0.02346742077659434 
0 
-0.04097934957322405 
0 
0 
0 
0 
0 
0 
0 
0 
0 
0 
0 
0 
0 
0 
0 
0 
0 
0 
0 
0 
0 
0 
0.01040144987095347 
0 
0 
0 
0.003825113189602197 
-0.005586369292348591 
0 
0 
0 
0 
0 
0 
0.01985018659149423 
0 
0 
0.009244497086544214 
0 
0 
0 
0 
0 
0 
-0.02554693977219113 
0 
0 
0 
0 
0 
0 
0 
0 
0.06460561953960192 
0 
-0.03313755464479435 
0.01185006969473366 
0.0002911584799535388 
0 
0 
0 
0 
0.0006037118831472041 
0 
0 
0 
0 
-0.01010060481436633 
0 
0 
0 
0 
0.0008071162689712247 
0 
0 
0 
0.06983809979398924 
0 
0 
0 
0 
-0.1342856412772686 
0 
0 
0 
0 
0 
0 
0.002868343779586828 
-0.0286106213475897 
0 
0 
0 
-1.301042606982605e-18 
0.06590737843582141 
0 
1.897353801849633e-19 
0 
0.04328495983466409 
0 
0 
0 
-0.02110415314719606 
-0.01394819650692384 
0 
0.08910618199754873 
0 
0 
0 
0 
0 
0.0006203617616632416 
0 
0 
0 
0 
0 
0 
0 
0 
0 
0 
0 
0 
0.008899343550235332 
0 
0 
-0.02254194272906289 
0 
-0.05947101105337554 
0 
0 
0 
0 
0 
0 
0 
0 
0 
-0.00249977169876218 
0 
0 
0 
0 
1.734723475976807e-18 
0 
-0.001952960671056947 
-0.0123966360449585 
0 
0 
0 
0 
0 
0 
0.06195657662563699 
0 
0 
0 
0 
0 
0 
0 
0 
0 
0 
0 
0 
0 
0 
-0.004283231515121608 
0 
0 
0 
0.05607904414241999 
0 
0 
0 
0 
0 
0.0172385250105314 
0 
0 
0 
-0.1115123072447452 
-3.979358850448201e-05 
0 
1.084202172485504e-19 
0 
0 
0 
0 
0 
0 
-2.032879073410321e-20 
0 
0 
-0.007551414594823043 
-0.0123966360449585 
0 
-2.032879073410321e-20 
0 
0 
0 
0 
0.002243547713532785 
0 
-0.00939620155975473 
0 
0 
0 
0 
0 
0 
0 
0.003412219995257185 
0 
0 
-0.004187537660890146 
0 
0 
0 
0 
-0.04396233614654118 
0 
0 
0 
0 
0 
-2.032879073410321e-20 
8.673617379884035e-19 
0 
0 
0 
0 
-0.0108617167230557 
0 
0 
0.001434171889793414 
0 
0 
0 
0.02067961522172154 
0 
0 
-0.01011060581395443 
0 
0 
0 
0 
0 
0 
0 
0 
0 
0 
0 
0 
0 
0 
0 
0 
0 
0 
0 
0 
0 
0 
0 
0 
0 
0 
0 
0.002964328450408026 
0 
0 
0 
0 
0 
0 
0 
0 
0 
0.6666666666666666 
0 
0 
0 
0.004941709794824215 
0 
0 
0 
0 
0 
0 
0 
0.04038326405102539 
0 
0 
0 
0 
0 
0 
0 
-0.001170530350555002 
0 
0.1487038893694811 
0 
-0.004769853186853397 
0 
0.01882046157175078 
0 
0 
0 
0 
0 
-0.0008106334836171147 
0.1059740749246158 
0.01999277241286277 
-0.1202519512088809 
0 
0 
0 
0 
0 
0 
0 
0.09867329389445259 
0 
-0.09002116996985381 
0.02748729839092139 
0 
0.02635469544606539 
0 
-0.03297389984455732 
0 
0 
0 
-0.005606287375351683 
0 
0 
0 
0 
-0.01707418520651871 
0 
0 
0 
0.0002911584799535388 
0 
0.02161645147212339 
0 
0 
0 
0 
0 
0 
0 
0 
0 
0 
0 
0 
0.01999277241286277 
0 
0 
0 
0 
0.0288789981309438 
0 
0 
0 
-0.01374234594067821 
0 
0 
0 
0 
0 
0 
0 
-0.01891922084088578 
0 
0 
0 
0 
0 
0 
0 
0 
0 
0 
0 
0 
0 
0 
0 
0 
0 
0 
0 
0 
0 
0 
0.0154083542878439 
0 
0 
0 
0.02845690868843558 
0.009093268105662142 
0 
0 
0.04177450559647492 
0 
0 
0 
0.0006203617616632416 
0 
0 
0 
0 
0 
0 
0 
0 
-0.09896019033775888 
0 
0 
0 
0 
0.02140053122954109 
0 
0.04557751565172885 
-2.032879073410321e-20 
0 
0.003072735973198717 
0 
0 
0 
0 
0 
0 
0 
0 
0 
-2.168404344971009e-18 
0 
0 
0.003412219995257185 
0.0006405769483449327 
0 
0 
0 
0 
0 
0 
0 
0 
0 
0 
0 
0 
-0.0146863978989445 
0 
0 
-0.04693922784322124 
0 
0 
0 
0 
0.259752168792398 
0 
0 
0 
0 
0 
0 
0 
-0.03040539071656106 
0 
0.03183451886999412 
0 
0.0006405769483449327 
0 
0 
0 
0 
0 
0 
0.004191415059893565 
0 
0 
0.0002911584799535388 
0 
-0.08099530773444623 
0 
0 
0 
0 
0 
0.001240723523326483 
0 
0 
0 
0 
0 
0 
0.008653183496976302 
0 
-0.0123966360449585 
0 
0 
-0.05727503893854777 
0 
0 
0 
-2.032879073410321e-20 
0 
0 
0 
0 
0 
0 
0 
0 
0 
0 
0 
-0.0123966360449585 
0 
0.002243547713532785 
0 
0 
0 
0 
0 
0 
0 
0 
0.02912478944851334 
0 
0 
0 
0 
0 
0 
0 
0.002964328450408026 
0 
0 
-0.0248158931773864 
0 
0 
0.0006203617616632416 
0.004941709794824215 
0 
0 
0 
9.351243737687476e-18 
0 
0 
0 
0 
0.03254902919178923 
-2.032879073410321e-20 
0 
0 
0.01496194202484849 
0 
0 
0.03542660477125337 
0 
-0.000105987565760651 
0 
0 
0 
0 
0 
0 
0 
0 
0 
0 
0 
0 
0 
0 
0 
0.0002911584799535388 
0 
0 
0 
0 
0 
0 
-0.007281667656722424 
0 
0.02529769114928977 
0 
0 
-0.1518138896447622 
0.05684173309916071 
0 
0 
0 
-0.00374186415313671 
0 
0.0002820848922113885 
0 
0 
2.710505431213761e-20 
0.06015677620066238 
0.04119346497261889 
0 
0 
0 
0 
0.003332410817357095 
0 
0.03316674769229806 
0 
-0.01054981419672765 
0.0009512156261730614 
0 
0 
0.00212932399569565 
0 
0 
0 
0 
0 
-9.75781955236954e-19 
0 
0.00264461309883169 
-0.08210892458178817 
0 
0 
0 
0 
0 
0.07407407407407407 
0 
0.1651780920436398 
-5.299378288032549e-05 
0 
0 
0 
0 
0.03028242963258268 
0 
0 
0 
0.00212932399569565 
0 
0 
0 
0 
0 
-0.0501949161030894 
0.002636382328577478 
0 
0 
0 
0 
0.08989171445555398 
0 
0 
0 
0 
0 
-0.003587599722426185 
0 
0 
0 
0 
0.01990195694876761 
0.0002911584799535388 
0 
0 
0 
-0.008554828420901729 
0 
0 
0.03684206455626252 
0 
-0.001192952552284475 
0 
0 
-0.03811472907277036 
0 
0.3196416848142694 
0.1013052796443525 
0 
0 
0 
0 
0 
-0.007933728800507097 
0 
0 
0.003265696798933758 
0 
0 
0 
-0.02608444192873847 
0 
0 
-0.01890413977520287 
0 
0 
0 
-3.979358850448201e-05 
0 
-0.0006196871137847695 
0 
0 
0 
0 
0 
0 
0 
-5.746271514173174e-18 
0 
0 
0 
0 
-0.0123966360449585 
0 
0 
0 
0 
0 
0 
0 
0 
0 
0 
-0.3135704774994968 
0 
0 
0 
0 
0.005643901415014227 
-0.1615270270741059 
0 
0.0006405769483449327 
0 
0 
0 
0 
0 
0 
0 
0 
0 
0 
0 
0 
0 
0 
0 
0 
0 
0 
0.01736533474874115 
0 
0.0006405769483449327 
0 
